################################################################################
# Neural network connection values (weights and biases).
################################################################################
# Col  Name       Description
################################################################################
# 1    connection Neural network connection value.
# 2    t          Connection type (a = weight, b = bias).
# 3    index      Index enumerating weights.
# 4    l_s        Starting point layer (end point layer for biases).
# 5    n_s        Starting point neuron in starting layer (end point neuron for biases).
# 6    l_e        End point layer.
# 7    n_e        End point neuron in end layer.
################################################################################
#                      1 2         3     4     5     6     7
#             connection t     index   l_s   n_s   l_e   n_e
############################################################
 -6.4591294122367837E-01 a         1     0     1     1     1
 -8.2608342088390041E-01 a         2     0     1     1     2
 -5.0013391505183413E-01 a         3     0     1     1     3
  6.2699266661878783E-01 a         4     0     1     1     4
  4.6843896720037126E-01 a         5     0     1     1     5
  1.7525581959438230E+00 a         6     0     1     1     6
  1.3081307111896601E+00 a         7     0     1     1     7
  1.4641955805299681E-01 a         8     0     1     1     8
  2.8186541750082647E-03 a         9     0     1     1     9
 -2.7489913959756490E-01 a        10     0     1     1    10
  4.4917163831688822E-01 a        11     0     1     1    11
 -1.9315770618168775E+00 a        12     0     1     1    12
 -5.2388214461966864E-01 a        13     0     1     1    13
  2.1822881031213440E-01 a        14     0     1     1    14
  6.0367568285229156E-01 a        15     0     1     1    15
  3.2203547093752176E+00 a        16     0     2     1     1
 -3.5377414061478079E+00 a        17     0     2     1     2
  1.6202146268338298E+00 a        18     0     2     1     3
  3.8203598387345362E-02 a        19     0     2     1     4
  3.1016252044957926E+00 a        20     0     2     1     5
 -2.1105346889925731E+00 a        21     0     2     1     6
 -3.4611970857645864E+00 a        22     0     2     1     7
 -1.0310764211612107E+00 a        23     0     2     1     8
 -1.4771649191582286E+00 a        24     0     2     1     9
 -7.8944699512478933E-01 a        25     0     2     1    10
  3.6392147376296169E+00 a        26     0     2     1    11
 -1.6637241599338224E+00 a        27     0     2     1    12
 -7.9275481456017016E-01 a        28     0     2     1    13
 -1.4808945928647343E+00 a        29     0     2     1    14
  1.3328803338287858E+00 a        30     0     2     1    15
  1.5506851787853833E+00 a        31     0     3     1     1
 -1.1535664353077071E+00 a        32     0     3     1     2
  9.7124107009667851E-02 a        33     0     3     1     3
 -6.0748859724571980E-01 a        34     0     3     1     4
  7.5186266198984386E-01 a        35     0     3     1     5
  1.5910262231625732E-01 a        36     0     3     1     6
 -4.3675260070441924E-01 a        37     0     3     1     7
  5.7564923611104657E-01 a        38     0     3     1     8
  5.6172993656908965E-01 a        39     0     3     1     9
  1.4398246048455757E-01 a        40     0     3     1    10
 -1.5785959655746626E-01 a        41     0     3     1    11
 -3.7519798359194223E-01 a        42     0     3     1    12
 -9.2042152909457264E-01 a        43     0     3     1    13
  2.7668169720485863E-01 a        44     0     3     1    14
 -4.0910073926293039E-01 a        45     0     3     1    15
 -2.0562406199830585E+00 a        46     0     4     1     1
 -1.8105641402959656E+00 a        47     0     4     1     2
 -7.5676577528349520E-01 a        48     0     4     1     3
 -3.3472614337896428E-01 a        49     0     4     1     4
 -1.0635302011292720E+00 a        50     0     4     1     5
  8.5143226919491299E-01 a        51     0     4     1     6
  1.2221949411300290E+00 a        52     0     4     1     7
  1.6914839147455989E+00 a        53     0     4     1     8
 -1.4674108303782010E+00 a        54     0     4     1     9
  1.3627599590214814E+00 a        55     0     4     1    10
 -1.4253821299434026E+00 a        56     0     4     1    11
 -1.6333647904599641E-01 a        57     0     4     1    12
 -2.7923778261859705E-01 a        58     0     4     1    13
 -1.5192943789618457E-01 a        59     0     4     1    14
  5.1756968194000796E-01 a        60     0     4     1    15
  4.5891821275482630E-01 a        61     0     5     1     1
 -4.6014283491663965E-01 a        62     0     5     1     2
 -3.0674836848098588E-02 a        63     0     5     1     3
  7.2420985332539223E-01 a        64     0     5     1     4
 -3.8980963065874541E-01 a        65     0     5     1     5
  5.6474603960236391E-01 a        66     0     5     1     6
 -5.1744934849140478E-01 a        67     0     5     1     7
  3.1154792422616567E-01 a        68     0     5     1     8
 -5.0366653028950825E-01 a        69     0     5     1     9
 -1.1188596019757568E+00 a        70     0     5     1    10
 -4.0054678151944101E-01 a        71     0     5     1    11
  2.7741811167313535E-01 a        72     0     5     1    12
 -1.2443333379710542E-01 a        73     0     5     1    13
 -9.2465215127148603E-01 a        74     0     5     1    14
 -8.7724925937201714E-01 a        75     0     5     1    15
 -3.8769147843546556E+00 a        76     0     6     1     1
  1.2157932690267843E+00 a        77     0     6     1     2
 -1.2939776145533954E-01 a        78     0     6     1     3
 -1.8320575578932305E+00 a        79     0     6     1     4
 -1.2373220622575096E+00 a        80     0     6     1     5
  5.7698340183634143E+00 a        81     0     6     1     6
  3.5096670511186026E+00 a        82     0     6     1     7
  7.2714757748874026E-01 a        83     0     6     1     8
  1.9306032015053192E+00 a        84     0     6     1     9
 -1.9325481312467341E-01 a        85     0     6     1    10
 -1.7979240948748327E+00 a        86     0     6     1    11
 -1.1184231323841078E+00 a        87     0     6     1    12
  1.8850931296054283E+00 a        88     0     6     1    13
  2.1087615362768033E+00 a        89     0     6     1    14
 -4.8592790253406131E+00 a        90     0     6     1    15
 -5.4983452544319811E-01 a        91     0     7     1     1
  2.5582374580564460E-01 a        92     0     7     1     2
  4.6258683858301386E-01 a        93     0     7     1     3
 -5.9199583134617102E-02 a        94     0     7     1     4
 -1.1102588987942021E+00 a        95     0     7     1     5
  1.5289726281734037E-01 a        96     0     7     1     6
 -6.3688771382285836E-01 a        97     0     7     1     7
 -2.2069864519527208E-01 a        98     0     7     1     8
  2.4835846882195831E-01 a        99     0     7     1     9
  4.3250159652733661E-01 a       100     0     7     1    10
  1.9495362046944542E-01 a       101     0     7     1    11
  7.0093690034820000E-01 a       102     0     7     1    12
  9.1242463578118649E-01 a       103     0     7     1    13
  5.5896677560309260E-01 a       104     0     7     1    14
  1.1638033507097776E+00 a       105     0     7     1    15
  3.3127400969055425E+00 a       106     0     8     1     1
 -2.9377310815404273E-01 a       107     0     8     1     2
  1.4222690175014712E+00 a       108     0     8     1     3
 -7.3951839184766610E-02 a       109     0     8     1     4
 -8.9107899636033516E-01 a       110     0     8     1     5
 -4.8107958364281234E-01 a       111     0     8     1     6
  1.3590151252360199E+00 a       112     0     8     1     7
 -4.2988648524546083E+00 a       113     0     8     1     8
  4.9969174511766794E-02 a       114     0     8     1     9
 -2.2995360088680865E+00 a       115     0     8     1    10
 -2.4860189044211749E+00 a       116     0     8     1    11
 -8.0979177950831233E-02 a       117     0     8     1    12
 -2.3783646673254952E+00 a       118     0     8     1    13
  3.3235971844403394E+00 a       119     0     8     1    14
  3.9608404926159806E+00 a       120     0     8     1    15
 -3.7698183499220000E-01 a       121     0     9     1     1
 -3.2830495170146058E-02 a       122     0     9     1     2
 -7.8075127065754812E-01 a       123     0     9     1     3
  7.0137937254672711E-02 a       124     0     9     1     4
  8.6614611391442919E-01 a       125     0     9     1     5
 -7.5934392793938543E-01 a       126     0     9     1     6
  9.0938925654333502E-01 a       127     0     9     1     7
 -1.1507183690335359E+00 a       128     0     9     1     8
 -3.3525408623729858E-01 a       129     0     9     1     9
 -1.3406870870636270E-01 a       130     0     9     1    10
  3.8639494442170663E-01 a       131     0     9     1    11
  5.8786881603527308E-01 a       132     0     9     1    12
  2.2337911857934326E-01 a       133     0     9     1    13
  1.3577160036793678E-01 a       134     0     9     1    14
 -6.7156782904314460E-01 a       135     0     9     1    15
  3.7559374269805329E-01 a       136     0    10     1     1
 -1.1338258705813502E-01 a       137     0    10     1     2
 -1.2651605988623891E+00 a       138     0    10     1     3
  1.9351076290029479E+00 a       139     0    10     1     4
  4.6675294586358290E-01 a       140     0    10     1     5
  1.1907586769821497E+00 a       141     0    10     1     6
 -3.6928084717537129E+00 a       142     0    10     1     7
  3.4971697620248734E+00 a       143     0    10     1     8
 -9.5144497887321589E-01 a       144     0    10     1     9
  9.2298642105193829E-01 a       145     0    10     1    10
 -4.7377466386694528E-01 a       146     0    10     1    11
  2.0711552936187938E+00 a       147     0    10     1    12
  2.6841341594803825E+00 a       148     0    10     1    13
 -6.9049733730850731E+00 a       149     0    10     1    14
 -1.2745814994430822E+00 a       150     0    10     1    15
  1.8043543108966256E-01 a       151     0    11     1     1
  6.7645800749900520E-01 a       152     0    11     1     2
  8.6077586493732006E-01 a       153     0    11     1     3
 -4.5167537413211417E-01 a       154     0    11     1     4
 -6.8055048229098025E-01 a       155     0    11     1     5
 -5.1710855908266573E-01 a       156     0    11     1     6
  2.2286821228589979E-02 a       157     0    11     1     7
  6.6391935524250389E-01 a       158     0    11     1     8
  6.1532366355718915E-01 a       159     0    11     1     9
  4.6748832358850345E-01 a       160     0    11     1    10
 -4.9382878809680469E-01 a       161     0    11     1    11
 -6.9025341094766809E-02 a       162     0    11     1    12
  1.5579285346436303E-01 a       163     0    11     1    13
 -2.6001219607073756E-01 a       164     0    11     1    14
  2.2981142872153407E-01 a       165     0    11     1    15
 -2.4003836269920771E+00 a       166     0    12     1     1
  2.6251359276317623E+00 a       167     0    12     1     2
  1.0094102927770067E-01 a       168     0    12     1     3
 -1.4461999469165394E-02 a       169     0    12     1     4
  4.1806713156613479E-01 a       170     0    12     1     5
 -3.7928581464754410E+00 a       171     0    12     1     6
  2.5856319576023874E+00 a       172     0    12     1     7
 -1.9554348252956579E+00 a       173     0    12     1     8
  2.1528185762347922E+00 a       174     0    12     1     9
  1.1216615314251583E+00 a       175     0    12     1    10
  3.4648120985042324E-01 a       176     0    12     1    11
  1.3632581305965127E-01 a       177     0    12     1    12
 -1.2406646822174208E+00 a       178     0    12     1    13
  3.7971506795281131E+00 a       179     0    12     1    14
  2.4237087511878469E-01 a       180     0    12     1    15
  1.1690377529194040E-01 a       181     0    13     1     1
 -1.1029696633220157E-01 a       182     0    13     1     2
 -5.0449003049388086E-01 a       183     0    13     1     3
  2.3556806102482880E-01 a       184     0    13     1     4
  3.5932969534665088E-01 a       185     0    13     1     5
  3.7373237244877250E-01 a       186     0    13     1     6
  1.3072076206368513E-01 a       187     0    13     1     7
 -5.9038139837891433E-02 a       188     0    13     1     8
 -2.1900130574344276E-01 a       189     0    13     1     9
  1.6364218359754473E-01 a       190     0    13     1    10
  2.4695352704229509E-01 a       191     0    13     1    11
  2.7452456972703781E-01 a       192     0    13     1    12
 -3.3794671800715120E-01 a       193     0    13     1    13
 -1.3931764433020863E-02 a       194     0    13     1    14
 -1.5516829729309897E-01 a       195     0    13     1    15
  2.3247256224602793E+00 a       196     0    14     1     1
 -5.2053660507173838E-01 a       197     0    14     1     2
 -6.8419153197793425E-01 a       198     0    14     1     3
  8.4595369199782139E-02 a       199     0    14     1     4
 -4.7726883846334178E-01 a       200     0    14     1     5
  1.5286260354550461E+00 a       201     0    14     1     6
  9.4099179515166304E-02 a       202     0    14     1     7
  4.0831055163522506E-01 a       203     0    14     1     8
 -2.4085444741433101E-01 a       204     0    14     1     9
 -4.3128740401243149E-01 a       205     0    14     1    10
  1.1207949666307035E+00 a       206     0    14     1    11
  3.8895609913813850E-01 a       207     0    14     1    12
  3.1943438508759421E-02 a       208     0    14     1    13
 -7.1293083900867449E-01 a       209     0    14     1    14
 -2.0520527875380997E-02 a       210     0    14     1    15
 -2.1336006762470730E-02 a       211     0    15     1     1
  4.5105900238202087E-02 a       212     0    15     1     2
  6.8513292543335810E-02 a       213     0    15     1     3
 -4.3734090383302414E-02 a       214     0    15     1     4
 -7.8844984178565711E-02 a       215     0    15     1     5
 -4.3686918299686801E-02 a       216     0    15     1     6
 -3.2938327476179558E-03 a       217     0    15     1     7
 -2.2717691476911851E-03 a       218     0    15     1     8
  7.5045712973750706E-03 a       219     0    15     1     9
 -4.5071886856769001E-02 a       220     0    15     1    10
 -2.4468206632483558E-02 a       221     0    15     1    11
 -6.6046135892568178E-02 a       222     0    15     1    12
  5.0436928151120358E-02 a       223     0    15     1    13
  2.2116354033696377E-02 a       224     0    15     1    14
  5.8115306636345690E-02 a       225     0    15     1    15
 -3.4380097091037964E-01 a       226     0    16     1     1
  3.6240292291809700E-01 a       227     0    16     1     2
 -3.1910572140302224E-01 a       228     0    16     1     3
  9.7787684889725890E-02 a       229     0    16     1     4
 -9.4540557470941158E-02 a       230     0    16     1     5
 -1.6437737051293302E-01 a       231     0    16     1     6
 -6.1721263084519036E-02 a       232     0    16     1     7
 -4.7506894694490905E-03 a       233     0    16     1     8
  2.9164082963557781E-03 a       234     0    16     1     9
  2.3944620493629962E-01 a       235     0    16     1    10
 -3.1958756112700226E-01 a       236     0    16     1    11
 -7.7752634384255129E-02 a       237     0    16     1    12
 -1.2579568235274405E-01 a       238     0    16     1    13
  5.2493600686049885E-02 a       239     0    16     1    14
  1.9302007433624556E-02 a       240     0    16     1    15
  9.9919572909644455E-02 a       241     0    17     1     1
  3.7354643887062132E-02 a       242     0    17     1     2
 -4.2762451796808593E-01 a       243     0    17     1     3
  7.6991232379901753E-01 a       244     0    17     1     4
  2.0888233791576721E-01 a       245     0    17     1     5
  2.9648138245357974E-02 a       246     0    17     1     6
 -5.0677282681985369E-01 a       247     0    17     1     7
  2.3919716151180714E-01 a       248     0    17     1     8
  4.7022385170128833E-01 a       249     0    17     1     9
 -6.3283853707240301E-01 a       250     0    17     1    10
  4.5688133509831175E-01 a       251     0    17     1    11
  3.1893004065715852E-01 a       252     0    17     1    12
 -6.1875120451717149E-02 a       253     0    17     1    13
 -2.4931693958933354E-02 a       254     0    17     1    14
  3.9432099296250835E-02 a       255     0    17     1    15
  1.6373493140874118E-01 a       256     0    18     1     1
 -9.2603758368566713E-01 a       257     0    18     1     2
 -1.7058218503273448E-01 a       258     0    18     1     3
 -6.4698659418364696E-02 a       259     0    18     1     4
  2.3171496263744099E-02 a       260     0    18     1     5
 -1.2043023076885309E-01 a       261     0    18     1     6
 -3.1644248745176801E-01 a       262     0    18     1     7
 -1.1181189641135219E+00 a       263     0    18     1     8
  8.9385725694814389E-01 a       264     0    18     1     9
  1.2858121419792361E+00 a       265     0    18     1    10
  1.2018211675858884E-01 a       266     0    18     1    11
  9.0709039632187349E-01 a       267     0    18     1    12
 -5.3870191076229179E-01 a       268     0    18     1    13
 -9.0806873316800832E-02 a       269     0    18     1    14
 -1.7267578295214747E-01 a       270     0    18     1    15
 -4.6622868526388850E-01 a       271     0    19     1     1
 -2.7844872767941511E+00 a       272     0    19     1     2
 -3.7537184651406014E-01 a       273     0    19     1     3
  1.8912557800100638E+00 a       274     0    19     1     4
 -4.9856302457387297E-01 a       275     0    19     1     5
 -4.9827009135660755E-01 a       276     0    19     1     6
 -1.0458489479515236E+00 a       277     0    19     1     7
 -2.7449502034655495E+00 a       278     0    19     1     8
  1.3549366436592662E+00 a       279     0    19     1     9
  7.1771169953757230E-01 a       280     0    19     1    10
  1.3427734152205999E+00 a       281     0    19     1    11
 -7.6382480142568399E-01 a       282     0    19     1    12
 -4.0367718416888065E+00 a       283     0    19     1    13
  2.1462152489423109E-01 a       284     0    19     1    14
 -1.3006640190355061E+00 a       285     0    19     1    15
 -4.7102066991495752E-02 a       286     0    20     1     1
  1.1772199906954009E-01 a       287     0    20     1     2
  6.1275953896779263E-02 a       288     0    20     1     3
 -2.4201917755458216E-01 a       289     0    20     1     4
  1.2436743406863698E-01 a       290     0    20     1     5
 -5.6583444916233891E-02 a       291     0    20     1     6
  5.0023549561372160E-01 a       292     0    20     1     7
 -1.0555120440127576E-01 a       293     0    20     1     8
  7.1443167946522806E-02 a       294     0    20     1     9
  5.4247600257147388E-01 a       295     0    20     1    10
 -5.6924351460156475E-01 a       296     0    20     1    11
  4.4418374431510366E-02 a       297     0    20     1    12
  6.1344821788186343E-02 a       298     0    20     1    13
 -6.8364588749302582E-02 a       299     0    20     1    14
 -3.7227589103943769E-02 a       300     0    20     1    15
  4.6535605440660205E-01 a       301     0    21     1     1
  1.1687041458376268E+00 a       302     0    21     1     2
  4.2662366049593520E-01 a       303     0    21     1     3
  5.0498981140519961E-01 a       304     0    21     1     4
 -6.5475625297326978E-01 a       305     0    21     1     5
 -8.0073243428905719E-02 a       306     0    21     1     6
 -8.5368741452610288E-03 a       307     0    21     1     7
  7.7603781573957431E-01 a       308     0    21     1     8
 -6.9910967453393835E-01 a       309     0    21     1     9
  4.5233592154312935E-01 a       310     0    21     1    10
  6.4567140685542890E-01 a       311     0    21     1    11
  1.2769756365992182E+00 a       312     0    21     1    12
  1.7447702113408869E-01 a       313     0    21     1    13
 -1.3696032863406157E-01 a       314     0    21     1    14
  1.5725879527666145E-01 a       315     0    21     1    15
 -1.3333740586550613E+00 a       316     0    22     1     1
  5.8379576909288522E-01 a       317     0    22     1     2
 -4.0678420898192325E-01 a       318     0    22     1     3
 -3.4902821657374039E-01 a       319     0    22     1     4
  1.3818410899168301E+00 a       320     0    22     1     5
  2.2525592658450977E+00 a       321     0    22     1     6
 -4.8594267941119629E+00 a       322     0    22     1     7
  2.7007023526285994E+00 a       323     0    22     1     8
 -5.5627475672382232E-01 a       324     0    22     1     9
  1.0888529679851926E+00 a       325     0    22     1    10
 -2.6201513688559421E+00 a       326     0    22     1    11
 -4.8463589083143516E-01 a       327     0    22     1    12
  6.5591330748208676E-01 a       328     0    22     1    13
 -9.8774251437094363E-01 a       329     0    22     1    14
  1.1113221193692835E+00 a       330     0    22     1    15
 -1.0224233300215790E-01 a       331     0    23     1     1
 -4.7054134789549444E-02 a       332     0    23     1     2
  1.3149723862129603E-01 a       333     0    23     1     3
 -2.2268345120257504E-01 a       334     0    23     1     4
 -2.9009558457503928E-02 a       335     0    23     1     5
 -3.6427602927963931E-02 a       336     0    23     1     6
  1.3354234174976376E-01 a       337     0    23     1     7
 -1.0657597860511570E-01 a       338     0    23     1     8
 -1.3819619108171383E-01 a       339     0    23     1     9
  2.0693715671236435E-01 a       340     0    23     1    10
 -1.3507942938019682E-01 a       341     0    23     1    11
 -1.5780906618792295E-01 a       342     0    23     1    12
  1.5624519155233210E-02 a       343     0    23     1    13
  2.4323219121931128E-02 a       344     0    23     1    14
 -1.8118240475231469E-02 a       345     0    23     1    15
 -1.6089648092658743E-01 a       346     0    24     1     1
  3.4223762477494785E-01 a       347     0    24     1     2
 -1.7209592730202744E-01 a       348     0    24     1     3
  5.6480619524032992E-04 a       349     0    24     1     4
  2.3574156202789717E-01 a       350     0    24     1     5
 -4.0205183644670034E-01 a       351     0    24     1     6
 -4.8743115747122240E-01 a       352     0    24     1     7
  4.5906478646591919E-01 a       353     0    24     1     8
  7.1386640074054064E-01 a       354     0    24     1     9
 -1.2202191806181899E+00 a       355     0    24     1    10
 -6.9235042931232241E-02 a       356     0    24     1    11
 -4.3027302217442298E-01 a       357     0    24     1    12
  5.6086725244749398E-02 a       358     0    24     1    13
  4.7713222069180411E-02 a       359     0    24     1    14
  4.5008979739394030E-02 a       360     0    24     1    15
  1.9423447382594286E-01 a       361     0    25     1     1
  2.4941711499099517E+00 a       362     0    25     1     2
 -1.4334848150016906E+00 a       363     0    25     1     3
 -6.1653729803813673E-01 a       364     0    25     1     4
  6.1708556867308217E-01 a       365     0    25     1     5
 -7.1848510332692495E-01 a       366     0    25     1     6
  8.9180386077050766E-01 a       367     0    25     1     7
  1.5437685418326859E+00 a       368     0    25     1     8
  1.5899317320652684E+00 a       369     0    25     1     9
 -4.6583535928109017E+00 a       370     0    25     1    10
  1.5714701734237395E+00 a       371     0    25     1    11
  1.3631526416805018E+00 a       372     0    25     1    12
  2.2973043537298548E+00 a       373     0    25     1    13
  7.6120705041237899E-02 a       374     0    25     1    14
  6.3095630112243595E-01 a       375     0    25     1    15
 -1.3593216556852225E-01 a       376     0    26     1     1
  1.5863350675814133E-01 a       377     0    26     1     2
 -1.2719949953229306E-01 a       378     0    26     1     3
  1.4629240656871986E-01 a       379     0    26     1     4
 -6.3280594494860148E-02 a       380     0    26     1     5
 -4.7307694582556133E-02 a       381     0    26     1     6
 -2.3949939099022655E-01 a       382     0    26     1     7
  9.5266680070178161E-02 a       383     0    26     1     8
 -1.3239092470658678E-01 a       384     0    26     1     9
 -4.2179762706743329E-01 a       385     0    26     1    10
  2.0296854907246231E-01 a       386     0    26     1    11
 -1.3313960258239299E-01 a       387     0    26     1    12
  1.1167102710518650E-01 a       388     0    26     1    13
  6.4555441029812144E-02 a       389     0    26     1    14
  9.7549407016954120E-03 a       390     0    26     1    15
 -1.1397411266635891E+00 a       391     0    27     1     1
  8.2240246535152040E-01 a       392     0    27     1     2
  5.9481803890965435E-01 a       393     0    27     1     3
 -1.1263158315783166E+00 a       394     0    27     1     4
 -5.2124968380371683E-01 a       395     0    27     1     5
 -1.2918615175304142E+00 a       396     0    27     1     6
  1.8754058185767117E-01 a       397     0    27     1     7
 -1.0288095405025812E+00 a       398     0    27     1     8
 -1.4062419861281401E+00 a       399     0    27     1     9
  9.5971922907922558E-02 a       400     0    27     1    10
 -7.3622689502327865E-01 a       401     0    27     1    11
 -6.2526416164791418E-02 a       402     0    27     1    12
  1.3999466917267978E+00 a       403     0    27     1    13
  2.1549751721950341E-01 a       404     0    27     1    14
 -4.6818068321503099E-02 a       405     0    27     1    15
  1.4120654886485882E+00 a       406     0    28     1     1
  3.4769241808943652E+00 a       407     0    28     1     2
 -2.8396343250348288E-01 a       408     0    28     1     3
  3.5191035314045336E+00 a       409     0    28     1     4
 -1.7419543861686171E+00 a       410     0    28     1     5
 -1.4517823107194339E+00 a       411     0    28     1     6
  4.7825134600502723E+00 a       412     0    28     1     7
 -2.2345192635479175E-01 a       413     0    28     1     8
  2.6482919119803903E+00 a       414     0    28     1     9
  9.9990183569770918E-01 a       415     0    28     1    10
 -1.4171327462132586E+00 a       416     0    28     1    11
  1.4790924312954519E+00 a       417     0    28     1    12
  7.1551526041285030E-01 a       418     0    28     1    13
  3.4530828070506496E-02 a       419     0    28     1    14
 -3.1217598311887751E-01 a       420     0    28     1    15
  1.0622394136302438E-01 a       421     0    29     1     1
 -6.4621248409854587E-02 a       422     0    29     1     2
  4.3597903135567373E-01 a       423     0    29     1     3
 -9.2860840550244383E-01 a       424     0    29     1     4
 -2.4852202848829794E-01 a       425     0    29     1     5
  7.1660541324020319E-02 a       426     0    29     1     6
  5.5477224901045175E-01 a       427     0    29     1     7
 -1.1683286810919891E-01 a       428     0    29     1     8
 -2.9761434614304333E-01 a       429     0    29     1     9
  7.6637914906747251E-01 a       430     0    29     1    10
 -8.1300968471812163E-01 a       431     0    29     1    11
 -3.3244043057391326E-01 a       432     0    29     1    12
 -5.6812864017798349E-03 a       433     0    29     1    13
  4.7274843548523373E-03 a       434     0    29     1    14
 -4.5042273007684624E-02 a       435     0    29     1    15
  4.4612689907460736E-02 a       436     0    30     1     1
 -5.1799959415230179E-01 a       437     0    30     1     2
  2.4896531779446601E-01 a       438     0    30     1     3
 -5.7525062601413324E-01 a       439     0    30     1     4
 -4.0046862405570949E-01 a       440     0    30     1     5
 -6.2382912881535324E-01 a       441     0    30     1     6
 -5.1316379903480713E-01 a       442     0    30     1     7
 -3.9035658272799761E-01 a       443     0    30     1     8
 -3.4444153881338263E-01 a       444     0    30     1     9
  4.8103849955554875E-02 a       445     0    30     1    10
  3.1628583488677486E-01 a       446     0    30     1    11
  3.4788555708936623E-02 a       447     0    30     1    12
  6.1725009797732977E-01 a       448     0    30     1    13
  3.9382168378149623E-01 a       449     0    30     1    14
  1.7940475302771434E-02 a       450     0    30     1    15
  3.4745033611281260E+00 a       451     0    31     1     1
 -5.4929037108750023E-01 a       452     0    31     1     2
 -1.5175881787696008E+00 a       453     0    31     1     3
  8.5413339119824669E-03 a       454     0    31     1     4
 -3.7323377268215281E+00 a       455     0    31     1     5
  6.2332134143019269E-01 a       456     0    31     1     6
  3.9707463163317662E+00 a       457     0    31     1     7
 -9.5142718776824386E-01 a       458     0    31     1     8
 -1.4110917276878668E-01 a       459     0    31     1     9
  2.3272817517052791E+00 a       460     0    31     1    10
  1.1285319436840493E+00 a       461     0    31     1    11
 -4.3707355017407140E-01 a       462     0    31     1    12
  5.7360573644684152E+00 a       463     0    31     1    13
  2.4179113142506059E-01 a       464     0    31     1    14
  5.6326048202138046E-01 a       465     0    31     1    15
 -1.9937018161742359E-01 a       466     0    32     1     1
 -2.8396518600285103E-01 a       467     0    32     1     2
 -5.3774282542979751E-02 a       468     0    32     1     3
  4.0834318873858000E-01 a       469     0    32     1     4
 -5.1191289994369907E-02 a       470     0    32     1     5
 -1.7809583861626013E-01 a       471     0    32     1     6
 -6.5521745190517433E-01 a       472     0    32     1     7
 -5.9466840451093440E-02 a       473     0    32     1     8
  3.3779872039859833E-02 a       474     0    32     1     9
 -4.4670320651463513E-01 a       475     0    32     1    10
  1.0312874626159618E+00 a       476     0    32     1    11
  5.2357559123889875E-02 a       477     0    32     1    12
 -1.0532587198239023E-01 a       478     0    32     1    13
 -2.0898388620630161E-03 a       479     0    32     1    14
  5.2330656137848847E-02 a       480     0    32     1    15
  2.1815936380287546E-01 a       481     0    33     1     1
  5.0946864696715055E-01 a       482     0    33     1     2
 -1.2124368301417441E+00 a       483     0    33     1     3
 -1.9844132660712299E-01 a       484     0    33     1     4
  1.6283287369195747E+00 a       485     0    33     1     5
  7.0602909968351479E-01 a       486     0    33     1     6
  3.1076955135403694E-01 a       487     0    33     1     7
  8.0848827470280371E-01 a       488     0    33     1     8
  1.2545925242069191E+00 a       489     0    33     1     9
 -2.0003820138598027E-01 a       490     0    33     1    10
 -3.2398764356841456E-02 a       491     0    33     1    11
  3.7211162224658217E-01 a       492     0    33     1    12
 -1.5197580004926956E+00 a       493     0    33     1    13
 -4.7995224248585133E-01 a       494     0    33     1    14
 -8.4429371385679353E-02 a       495     0    33     1    15
 -1.9048636237461898E+00 a       496     0    34     1     1
 -4.7963236075065543E-02 a       497     0    34     1     2
  2.7378243450106621E+00 a       498     0    34     1     3
 -1.6268595515680373E+00 a       499     0    34     1     4
  2.4960384322564702E+00 a       500     0    34     1     5
 -3.1370704657153445E+00 a       501     0    34     1     6
 -2.6602988795813709E+00 a       502     0    34     1     7
  9.0406059738970457E-01 a       503     0    34     1     8
 -9.1253054222745200E-01 a       504     0    34     1     9
 -4.3078645843704591E-02 a       505     0    34     1    10
 -2.2117350377356054E-01 a       506     0    34     1    11
  6.8239557220704139E-01 a       507     0    34     1    12
 -2.9707746625127176E+00 a       508     0    34     1    13
  6.6060194434218877E-01 a       509     0    34     1    14
 -7.2362768523468637E-02 a       510     0    34     1    15
 -1.9937638459390412E-02 a       511     0    35     1     1
  9.2916240224167002E-02 a       512     0    35     1     2
 -8.8048266363814423E-02 a       513     0    35     1     3
  2.9072418398488409E-01 a       514     0    35     1     4
  6.5825495562858716E-02 a       515     0    35     1     5
  4.4149793875639413E-03 a       516     0    35     1     6
 -1.2591138396546109E-01 a       517     0    35     1     7
  1.0521830414469492E-01 a       518     0    35     1     8
  2.5865532815489613E-02 a       519     0    35     1     9
 -3.2553079218550862E-01 a       520     0    35     1    10
  1.9768132599877339E-01 a       521     0    35     1    11
  1.2811061250199293E-01 a       522     0    35     1    12
  3.2061869407468108E-02 a       523     0    35     1    13
 -1.1521762170819412E-02 a       524     0    35     1    14
  2.3815401124644080E-02 a       525     0    35     1    15
 -5.8012343727750182E-01 a       526     0    36     1     1
  3.7324318074878815E-01 a       527     0    36     1     2
  5.3957870191002477E-01 a       528     0    36     1     3
 -1.2443524836645853E-01 a       529     0    36     1     4
 -3.3204499693011741E-01 a       530     0    36     1     5
 -2.9576693348931077E-01 a       531     0    36     1     6
  7.8837493818417148E-01 a       532     0    36     1     7
 -1.7070971243013555E-01 a       533     0    36     1     8
 -9.3688270181349309E-01 a       534     0    36     1     9
  8.7729523205394455E-02 a       535     0    36     1    10
 -2.4132658612439597E-02 a       536     0    36     1    11
 -5.7312478290075353E-01 a       537     0    36     1    12
  4.4153834828779082E-01 a       538     0    36     1    13
  9.6184511967736131E-03 a       539     0    36     1    14
 -1.7399949555118276E-02 a       540     0    36     1    15
 -1.2152312796141238E+00 a       541     0    37     1     1
 -2.6705178182954841E+00 a       542     0    37     1     2
  8.7010158918014502E-01 a       543     0    37     1     3
  1.0433260957343247E+00 a       544     0    37     1     4
  1.6960100219219565E+00 a       545     0    37     1     5
 -8.5021139288305292E-01 a       546     0    37     1     6
 -2.6058928069659313E+00 a       547     0    37     1     7
  2.8935292433245674E-01 a       548     0    37     1     8
  1.1719178212487056E+00 a       549     0    37     1     9
 -2.2511598918719020E+00 a       550     0    37     1    10
  1.1466158030213631E+00 a       551     0    37     1    11
 -3.2351300549094597E-01 a       552     0    37     1    12
 -2.6646758720716970E+00 a       553     0    37     1    13
  2.3519110590983180E-01 a       554     0    37     1    14
 -4.6897891159356553E-01 a       555     0    37     1    15
  1.9968818038798189E-01 a       556     0    38     1     1
  3.2951710166320325E-01 a       557     0    38     1     2
  1.8987354005273854E-01 a       558     0    38     1     3
 -4.5098327724496340E-01 a       559     0    38     1     4
 -6.6599255937644805E-02 a       560     0    38     1     5
 -2.7117076166612826E-03 a       561     0    38     1     6
  7.0999452362234750E-01 a       562     0    38     1     7
 -1.4321924612465418E-02 a       563     0    38     1     8
 -7.0522862213498780E-02 a       564     0    38     1     9
  5.0547860417341473E-01 a       565     0    38     1    10
 -5.6448072996522913E-01 a       566     0    38     1    11
  1.4764060365798864E-01 a       567     0    38     1    12
  5.9897378197538091E-02 a       568     0    38     1    13
 -4.4806899941304421E-02 a       569     0    38     1    14
 -4.7902290197893568E-03 a       570     0    38     1    15
  5.2370608249937589E-01 a       571     0    39     1     1
  1.6020363017354181E-01 a       572     0    39     1     2
 -1.6894637737871593E-01 a       573     0    39     1     3
  7.6018301311127412E-01 a       574     0    39     1     4
 -1.3271492604215990E-01 a       575     0    39     1     5
  2.2392734034327755E-01 a       576     0    39     1     6
 -2.1298559316039720E-02 a       577     0    39     1     7
  4.0727189943105874E-01 a       578     0    39     1     8
  4.8162017175635741E-01 a       579     0    39     1     9
  4.2725649320168441E-01 a       580     0    39     1    10
 -5.5727917932981035E-02 a       581     0    39     1    11
 -2.7224656666946168E-01 a       582     0    39     1    12
 -2.4883108920678312E-01 a       583     0    39     1    13
 -7.6587873920092420E-02 a       584     0    39     1    14
  1.0217925990905262E-01 a       585     0    39     1    15
  1.6915989411819035E+00 a       586     0    40     1     1
  1.0986746120878808E-01 a       587     0    40     1     2
 -1.7584577556008001E+00 a       588     0    40     1     3
 -2.8852942397432364E+00 a       589     0    40     1     4
  4.2186060667597786E-01 a       590     0    40     1     5
  9.5970504389566191E-01 a       591     0    40     1     6
  5.9595528869389869E-01 a       592     0    40     1     7
 -7.1848458378346380E-01 a       593     0    40     1     8
 -3.7717061468614994E+00 a       594     0    40     1     9
  1.8352328624414500E+00 a       595     0    40     1    10
  2.9224875214828621E+00 a       596     0    40     1    11
  1.2935986878506234E+00 a       597     0    40     1    12
 -4.0186542503229961E-01 a       598     0    40     1    13
 -4.8690927084433616E-01 a       599     0    40     1    14
 -1.8074781680757490E-01 a       600     0    40     1    15
 -6.5302632812798855E-02 a       601     0    41     1     1
  2.3998310433036005E-02 a       602     0    41     1     2
 -1.6141329650807096E-01 a       603     0    41     1     3
  4.4177527659353927E-01 a       604     0    41     1     4
  8.8579548209029690E-02 a       605     0    41     1     5
 -2.5250326964751268E-02 a       606     0    41     1     6
 -4.1490757114667084E-02 a       607     0    41     1     7
  8.5743953894103723E-03 a       608     0    41     1     8
  1.2552848498876334E-01 a       609     0    41     1     9
 -2.1285843293908552E-01 a       610     0    41     1    10
  5.0102387814322014E-01 a       611     0    41     1    11
  1.5668352605119135E-01 a       612     0    41     1    12
  6.4796509369113185E-03 a       613     0    41     1    13
 -1.0078173382828032E-02 a       614     0    41     1    14
  3.4100235508381531E-02 a       615     0    41     1    15
  1.6398069231855292E-01 a       616     0    42     1     1
  7.1870322380082952E-01 a       617     0    42     1     2
  8.1926742861241103E-02 a       618     0    42     1     3
 -2.0778665407478702E-01 a       619     0    42     1     4
 -2.4958213047579625E-01 a       620     0    42     1     5
  2.8765812136738161E-01 a       621     0    42     1     6
  9.5686736315225181E-03 a       622     0    42     1     7
 -4.1517115210247708E-02 a       623     0    42     1     8
 -6.2368391870569062E-01 a       624     0    42     1     9
 -2.4916602725278190E-03 a       625     0    42     1    10
 -2.2687471194429967E-01 a       626     0    42     1    11
 -6.3192969552860634E-01 a       627     0    42     1    12
 -4.4446683481107940E-01 a       628     0    42     1    13
  7.1671286819742861E-03 a       629     0    42     1    14
 -2.0460782290608732E-02 a       630     0    42     1    15
  1.0066835660656992E+00 a       631     0    43     1     1
  2.1839533541458751E+00 a       632     0    43     1     2
  9.3057939788076871E-01 a       633     0    43     1     3
  1.2192029684173564E+00 a       634     0    43     1     4
 -8.6331428643269115E-01 a       635     0    43     1     5
  2.0704319198500604E-01 a       636     0    43     1     6
  4.1165026913265307E-01 a       637     0    43     1     7
  1.1019800856162842E+00 a       638     0    43     1     8
 -3.9945679914371079E-01 a       639     0    43     1     9
  3.8476379148981170E+00 a       640     0    43     1    10
  3.6359478026149417E-01 a       641     0    43     1    11
  3.6017153090000154E+00 a       642     0    43     1    12
 -4.3029405688279221E+00 a       643     0    43     1    13
 -2.0311567719559054E-01 a       644     0    43     1    14
 -1.7839650442435706E-01 a       645     0    43     1    15
  1.7174330248805197E-01 a       646     0    44     1     1
  3.2137323954328562E-01 a       647     0    44     1     2
 -3.8651585093514226E-02 a       648     0    44     1     3
 -1.6202081275546534E-01 a       649     0    44     1     4
  7.7865659520327341E-02 a       650     0    44     1     5
  3.0260424120529839E-01 a       651     0    44     1     6
  1.2155951958404500E-01 a       652     0    44     1     7
  2.4087934249523779E-01 a       653     0    44     1     8
 -1.3597570565672271E-01 a       654     0    44     1     9
 -6.1026750936391518E-02 a       655     0    44     1    10
 -6.7572994294461031E-01 a       656     0    44     1    11
 -3.2132800647866894E-01 a       657     0    44     1    12
 -1.3278626895898746E-01 a       658     0    44     1    13
  4.3129953893181958E-03 a       659     0    44     1    14
 -3.2625461158246008E-02 a       660     0    44     1    15
 -2.5739688813335465E-01 a       661     0    45     1     1
 -1.1638080022012538E+00 a       662     0    45     1     2
  1.9844317053085156E-01 a       663     0    45     1     3
  4.8569740334120953E-01 a       664     0    45     1     4
 -8.7133971064308841E-02 a       665     0    45     1     5
 -3.5945125694683500E-02 a       666     0    45     1     6
 -4.1486679387255210E-01 a       667     0    45     1     7
 -1.4760314969552513E-01 a       668     0    45     1     8
 -2.2242645125134194E-01 a       669     0    45     1     9
 -4.5611619046562280E-01 a       670     0    45     1    10
  2.3909247240755224E-01 a       671     0    45     1    11
 -6.9249076892386363E-01 a       672     0    45     1    12
  5.0493202988691199E-01 a       673     0    45     1    13
  1.5991531270286649E-01 a       674     0    45     1    14
  9.7767637652396225E-03 a       675     0    45     1    15
 -1.3544489907642181E+00 a       676     0    46     1     1
  8.9680837840287220E-01 a       677     0    46     1     2
 -2.2364200471756659E+00 a       678     0    46     1     3
  3.2699570808162171E-01 a       679     0    46     1     4
  1.3516601003451456E+00 a       680     0    46     1     5
  2.0490200824776599E+00 a       681     0    46     1     6
  4.2868171040180497E-01 a       682     0    46     1     7
 -1.9839608155739649E-01 a       683     0    46     1     8
 -2.4816518833258983E-01 a       684     0    46     1     9
 -3.6417419651083680E+00 a       685     0    46     1    10
 -2.1082184620517155E+00 a       686     0    46     1    11
 -7.2043856271775537E+00 a       687     0    46     1    12
  1.3204315586248154E+00 a       688     0    46     1    13
 -2.2467703838595168E-01 a       689     0    46     1    14
  9.6856632493563619E-02 a       690     0    46     1    15
  3.5139720776705859E-02 a       691     0    47     1     1
 -2.2223341599193785E-02 a       692     0    47     1     2
  4.5352272052583936E-02 a       693     0    47     1     3
 -1.4261192043961496E-01 a       694     0    47     1     4
 -5.1056562607491342E-02 a       695     0    47     1     5
 -4.5713384878992548E-02 a       696     0    47     1     6
 -7.0843034066857699E-02 a       697     0    47     1     7
 -5.8409846282381647E-02 a       698     0    47     1     8
 -2.5191240567846215E-02 a       699     0    47     1     9
  1.3477090764343150E-01 a       700     0    47     1    10
 -1.4862411769480954E-01 a       701     0    47     1    11
 -5.6542518749345988E-02 a       702     0    47     1    12
  7.8933848535846091E-03 a       703     0    47     1    13
  9.2839951858910905E-03 a       704     0    47     1    14
 -1.6140261777847883E-02 a       705     0    47     1    15
  3.6019575646079915E-01 a       706     0    48     1     1
 -3.5246846712252222E-01 a       707     0    48     1     2
 -1.8977203165593318E-01 a       708     0    48     1     3
 -2.5821130185243794E-02 a       709     0    48     1     4
  3.3193747731417150E-01 a       710     0    48     1     5
  2.9221868847437860E-01 a       711     0    48     1     6
 -2.5305430641813809E-01 a       712     0    48     1     7
  2.5580354312347642E-01 a       713     0    48     1     8
  3.6527721736982893E-01 a       714     0    48     1     9
  9.2262698661422324E-02 a       715     0    48     1    10
 -2.1945857381391989E-01 a       716     0    48     1    11
  6.5491437254024765E-01 a       717     0    48     1    12
 -5.8330241735137227E-02 a       718     0    48     1    13
 -6.4379672750879788E-02 a       719     0    48     1    14
  8.0309142873304009E-03 a       720     0    48     1    15
  2.0369228481990895E-02 a       721     0    49     1     1
 -2.6807823085679672E-01 a       722     0    49     1     2
 -1.3592368497717557E+00 a       723     0    49     1     3
 -2.2727431819926571E+00 a       724     0    49     1     4
  1.0737695108215692E+00 a       725     0    49     1     5
  4.4389229804316771E-01 a       726     0    49     1     6
 -2.1388712464718646E-02 a       727     0    49     1     7
 -5.3769926360491371E-01 a       728     0    49     1     8
 -1.8480173909919115E-01 a       729     0    49     1     9
 -2.2321310667811770E-01 a       730     0    49     1    10
 -6.4446672079890077E-01 a       731     0    49     1    11
  2.3016754581260021E-01 a       732     0    49     1    12
  1.7361719417928101E+00 a       733     0    49     1    13
 -3.1052294751228254E-02 a       734     0    49     1    14
  1.5007606514728922E-01 a       735     0    49     1    15
 -1.1373764511891536E-01 a       736     0    50     1     1
 -3.0767529471518312E-01 a       737     0    50     1     2
 -7.7260817167186704E-02 a       738     0    50     1     3
  3.2596182375988986E-01 a       739     0    50     1     4
  7.5518022073241695E-02 a       740     0    50     1     5
  7.2434610177256461E-03 a       741     0    50     1     6
 -3.4806984362172233E-01 a       742     0    50     1     7
 -5.8244678999523014E-02 a       743     0    50     1     8
  8.4159050418907588E-02 a       744     0    50     1     9
 -1.7488449879630166E-01 a       745     0    50     1    10
  3.3544047264472904E-01 a       746     0    50     1    11
  7.3842387767090012E-02 a       747     0    50     1    12
 -1.3580624532971987E-02 a       748     0    50     1    13
  2.6614450411369516E-02 a       749     0    50     1    14
  2.3501723069123868E-02 a       750     0    50     1    15
 -2.1373632210735774E-01 a       751     0    51     1     1
  8.8730223602744532E-02 a       752     0    51     1     2
  2.2267229975604114E-01 a       753     0    51     1     3
 -2.0448307320268821E-01 a       754     0    51     1     4
 -2.5347638592208027E-01 a       755     0    51     1     5
 -1.3847104589618525E-01 a       756     0    51     1     6
  3.9955446809974586E-02 a       757     0    51     1     7
 -3.4965352627131102E-01 a       758     0    51     1     8
 -1.2526415485593831E-01 a       759     0    51     1     9
 -2.0055212747328752E-01 a       760     0    51     1    10
  1.1709106928912437E-01 a       761     0    51     1    11
  4.2085111401729006E-02 a       762     0    51     1    12
  1.0238937391416121E-01 a       763     0    51     1    13
  1.1952769015076549E-01 a       764     0    51     1    14
 -9.3786568414872470E-03 a       765     0    51     1    15
 -1.1914812913078112E+00 a       766     0    52     1     1
 -1.7952808437641419E+00 a       767     0    52     1     2
  3.3604145947855359E+00 a       768     0    52     1     3
  1.4742104462667842E+00 a       769     0    52     1     4
 -2.4619013158836971E+00 a       770     0    52     1     5
 -1.3449493433168560E+00 a       771     0    52     1     6
 -1.7456111058279424E+00 a       772     0    52     1     7
  6.7787823301435129E-03 a       773     0    52     1     8
  1.4411001089318467E+00 a       774     0    52     1     9
 -1.1914902007881658E+00 a       775     0    52     1    10
  4.9387307654553997E-01 a       776     0    52     1    11
 -1.7116920944699524E-01 a       777     0    52     1    12
  1.2604812097075788E+00 a       778     0    52     1    13
  3.8256398501303840E-01 a       779     0    52     1    14
  2.1604910576823257E-02 a       780     0    52     1    15
  5.4154876109414558E-02 a       781     0    53     1     1
  2.4706718763298528E-02 a       782     0    53     1     2
  4.5977188172773562E-02 a       783     0    53     1     3
 -1.3511250653645979E-01 a       784     0    53     1     4
 -3.0660836055467627E-02 a       785     0    53     1     5
 -1.0593970339392739E-02 a       786     0    53     1     6
 -1.7552698751529854E-02 a       787     0    53     1     7
  2.2158909435666729E-02 a       788     0    53     1     8
 -2.7373545015658279E-02 a       789     0    53     1     9
  3.7394967313355940E-02 a       790     0    53     1    10
 -1.6903767925102869E-01 a       791     0    53     1    11
 -4.9857403896732766E-02 a       792     0    53     1    12
 -4.3360093389018094E-03 a       793     0    53     1    13
 -5.3651626447787405E-03 a       794     0    53     1    14
 -1.1170703104670474E-02 a       795     0    53     1    15
  1.2234062605096095E-02 a       796     0    54     1     1
 -7.2873218320489416E-02 a       797     0    54     1     2
 -3.1214623591542645E-02 a       798     0    54     1     3
  5.6506118972912134E-02 a       799     0    54     1     4
  1.4895515636177847E-01 a       800     0    54     1     5
 -4.9246756315714312E-02 a       801     0    54     1     6
 -3.4006909718441829E-02 a       802     0    54     1     7
  1.6721749688444418E-01 a       803     0    54     1     8
  2.2716997434356498E-01 a       804     0    54     1     9
 -4.1084085574140325E-02 a       805     0    54     1    10
 -1.1361189753198454E-02 a       806     0    54     1    11
  2.0689931579164828E-01 a       807     0    54     1    12
  7.5525004865822282E-02 a       808     0    54     1    13
 -6.7612916558306202E-02 a       809     0    54     1    14
  1.0731951459422630E-02 a       810     0    54     1    15
 -1.4140948084651242E-01 a       811     0    55     1     1
  1.2916041742014117E+00 a       812     0    55     1     2
  6.6019192174372665E-01 a       813     0    55     1     3
 -3.5926333525712190E-01 a       814     0    55     1     4
  5.1288214371205987E-01 a       815     0    55     1     5
  8.6348997119165535E-02 a       816     0    55     1     6
  2.4784392606820643E-01 a       817     0    55     1     7
 -3.8892146524353105E-01 a       818     0    55     1     8
 -3.0471490646207616E-01 a       819     0    55     1     9
 -6.9100954610155363E-01 a       820     0    55     1    10
  2.0764529622711342E-01 a       821     0    55     1    11
 -3.2228410927846440E-01 a       822     0    55     1    12
 -2.0037700856519958E-02 a       823     0    55     1    13
  1.5726136841972996E-01 a       824     0    55     1    14
  1.5940503315721534E-02 a       825     0    55     1    15
 -9.0828207403239672E-02 a       826     0    56     1     1
 -1.9194246041286739E-01 a       827     0    56     1     2
  4.3120228711638280E-02 a       828     0    56     1     3
  4.9085034142829581E-02 a       829     0    56     1     4
 -5.7197698062763742E-03 a       830     0    56     1     5
 -9.6827616204839512E-02 a       831     0    56     1     6
 -4.8216230698165712E-02 a       832     0    56     1     7
 -1.1476589603224140E-01 a       833     0    56     1     8
 -1.2156260307858893E-02 a       834     0    56     1     9
  4.0059184666436473E-02 a       835     0    56     1    10
  1.9269547348511901E-01 a       836     0    56     1    11
  6.2818805478708023E-02 a       837     0    56     1    12
  8.2472104815832031E-02 a       838     0    56     1    13
  2.4455817641242453E-02 a       839     0    56     1    14
  3.3084016353933333E-03 a       840     0    56     1    15
 -1.6139149484519086E-01 a       841     0    57     1     1
  2.6636202548482715E-02 a       842     0    57     1     2
  2.1722098678981566E-01 a       843     0    57     1     3
 -9.5525611307176225E-02 a       844     0    57     1     4
 -2.5991125442968731E-02 a       845     0    57     1     5
  4.3776047614481565E-03 a       846     0    57     1     6
  1.0971409205028347E-01 a       847     0    57     1     7
 -6.4808403122586247E-02 a       848     0    57     1     8
 -2.4753773495004121E-02 a       849     0    57     1     9
  6.4687473206298779E-02 a       850     0    57     1    10
 -1.9388229238264687E-01 a       851     0    57     1    11
  1.5079660239805321E-02 a       852     0    57     1    12
  4.3307450267387151E-02 a       853     0    57     1    13
  4.2739697210399212E-03 a       854     0    57     1    14
 -1.6552055434332393E-03 a       855     0    57     1    15
  1.5607227199721938E-01 a       856     0    58     1     1
 -2.0010493863959811E+00 a       857     0    58     1     2
 -7.7428127564283564E-02 a       858     0    58     1     3
 -2.4879915729224336E-01 a       859     0    58     1     4
  1.6348414321179089E-01 a       860     0    58     1     5
 -7.1299116236138471E-01 a       861     0    58     1     6
 -6.8930770920331819E-01 a       862     0    58     1     7
  1.9306997003440135E-01 a       863     0    58     1     8
  3.8637269724773227E-01 a       864     0    58     1     9
  2.0460621678335034E-01 a       865     0    58     1    10
  3.0964694709973045E-01 a       866     0    58     1    11
  3.1804439868937878E-01 a       867     0    58     1    12
  7.4848163756758801E-01 a       868     0    58     1    13
 -1.4932078351281725E-01 a       869     0    58     1    14
  3.1126730551399945E-02 a       870     0    58     1    15
 -1.6006881813577577E-02 a       871     0    59     1     1
 -1.9247634651472847E-02 a       872     0    59     1     2
 -1.3155500267808977E-02 a       873     0    59     1     3
  4.2673745266180577E-02 a       874     0    59     1     4
  1.6746526806781344E-02 a       875     0    59     1     5
  4.1221439440216529E-02 a       876     0    59     1     6
  6.7097812793445288E-02 a       877     0    59     1     7
  1.4733994915993052E-02 a       878     0    59     1     8
  1.7985042549841436E-02 a       879     0    59     1     9
 -1.9153572726619272E-02 a       880     0    59     1    10
  6.0987096492076426E-02 a       881     0    59     1    11
  1.1151310760908225E-02 a       882     0    59     1    12
 -1.6821947295731356E-02 a       883     0    59     1    13
  1.1109884468779505E-03 a       884     0    59     1    14
  4.6963541409261898E-03 a       885     0    59     1    15
 -1.3224954044931284E-01 a       886     0    60     1     1
  5.7059927321661603E-02 a       887     0    60     1     2
 -1.4764616528016425E-02 a       888     0    60     1     3
 -4.2162490976077618E-02 a       889     0    60     1     4
 -9.4701097640441489E-02 a       890     0    60     1     5
 -7.2129109191387972E-02 a       891     0    60     1     6
  1.2384611963937570E-01 a       892     0    60     1     7
 -1.3135396844201605E-01 a       893     0    60     1     8
 -9.1644721800073922E-02 a       894     0    60     1     9
 -4.6222226249868440E-03 a       895     0    60     1    10
  1.0773493196822018E-01 a       896     0    60     1    11
 -1.9610840624185019E-01 a       897     0    60     1    12
  7.3048732788665496E-03 a       898     0    60     1    13
  4.2289198597386043E-02 a       899     0    60     1    14
 -5.7148656591933782E-03 a       900     0    60     1    15
 -1.4166848664057255E-01 a       901     0    61     1     1
 -5.0999085338136052E-01 a       902     0    61     1     2
  2.3388126796426903E-01 a       903     0    61     1     3
  9.4562079827158485E-01 a       904     0    61     1     4
 -5.2551743048154631E-01 a       905     0    61     1     5
 -1.6338196225825510E-01 a       906     0    61     1     6
 -5.1713447319688653E-02 a       907     0    61     1     7
  1.9735535232318296E-01 a       908     0    61     1     8
  5.9709029408662066E-02 a       909     0    61     1     9
  1.0868806638379216E-01 a       910     0    61     1    10
 -4.7322968586251395E-02 a       911     0    61     1    11
 -1.4290099796707167E-01 a       912     0    61     1    12
 -8.5373866223881781E-02 a       913     0    61     1    13
 -4.3483645732790774E-02 a       914     0    61     1    14
 -9.4285229660246977E-03 a       915     0    61     1    15
  6.2508636406554241E-02 a       916     0    62     1     1
  1.3826724999712292E-01 a       917     0    62     1     2
  2.8630515897312889E-02 a       918     0    62     1     3
 -1.6727966611552192E-01 a       919     0    62     1     4
 -4.6625460527617256E-02 a       920     0    62     1     5
 -1.8714000017522135E-02 a       921     0    62     1     6
  1.5928336622790812E-01 a       922     0    62     1     7
  1.6504396076985860E-02 a       923     0    62     1     8
 -1.2644982256492727E-02 a       924     0    62     1     9
  8.0998613729410196E-02 a       925     0    62     1    10
 -1.1102285285750603E-01 a       926     0    62     1    11
 -2.6964223252152562E-03 a       927     0    62     1    12
  6.4392091887769398E-03 a       928     0    62     1    13
 -1.5115726558546603E-02 a       929     0    62     1    14
 -4.7317727968776832E-03 a       930     0    62     1    15
  1.7473479115364807E-01 a       931     0    63     1     1
  9.7369582976101030E-02 a       932     0    63     1     2
 -1.6999164155299126E-01 a       933     0    63     1     3
 -2.4296929084074128E-02 a       934     0    63     1     4
  8.7415339457066518E-02 a       935     0    63     1     5
  3.1892105024046810E-02 a       936     0    63     1     6
 -1.4831514565779590E-02 a       937     0    63     1     7
  1.1661671729670102E-01 a       938     0    63     1     8
  4.0364959707776343E-02 a       939     0    63     1     9
  9.4168712341245867E-02 a       940     0    63     1    10
  4.6674438380704501E-02 a       941     0    63     1    11
  1.2200860420444844E-01 a       942     0    63     1    12
 -9.5475535615444487E-02 a       943     0    63     1    13
 -3.8604524965389603E-02 a       944     0    63     1    14
  3.2132722451620470E-03 a       945     0    63     1    15
  3.0432247908224402E-01 a       946     0    64     1     1
  4.1089057453639843E-01 a       947     0    64     1     2
 -8.2618549461739033E-01 a       948     0    64     1     3
 -3.3469604142255932E-01 a       949     0    64     1     4
  1.0135108743327081E+00 a       950     0    64     1     5
  4.2675490402263699E-01 a       951     0    64     1     6
  8.5884921645004031E-01 a       952     0    64     1     7
 -1.2065493468608922E-01 a       953     0    64     1     8
 -5.0625907472561871E-01 a       954     0    64     1     9
  5.2912299357229475E-01 a       955     0    64     1    10
 -3.5295369121387643E-02 a       956     0    64     1    11
  2.5771473699627285E+00 a       957     0    64     1    12
 -5.0309787162428632E-01 a       958     0    64     1    13
  5.9176107031096777E-02 a       959     0    64     1    14
 -2.8117116773987896E-02 a       960     0    64     1    15
  7.0565495041413795E-01 b       961     1     1
  1.4904143784088002E+00 b       962     1     2
 -1.8597505939345318E+00 b       963     1     3
  9.7332664939184188E-01 b       964     1     4
  4.1160502956656686E-02 b       965     1     5
 -1.0522867306553904E-01 b       966     1     6
  3.0236352873932688E-02 b       967     1     7
 -7.9936976599999779E-02 b       968     1     8
  9.3793303576645326E-01 b       969     1     9
 -2.5766838637133044E-01 b       970     1    10
 -3.2283500920854236E-01 b       971     1    11
  9.4789535002727554E-01 b       972     1    12
  5.1770195975644195E-01 b       973     1    13
 -1.0641836663375623E+00 b       974     1    14
 -1.8852006273545951E-02 b       975     1    15
  1.4864828275889258E-01 a       976     1     1     2     1
  5.0066752355905353E-01 a       977     1     1     2     2
  5.3831807918513908E-01 a       978     1     1     2     3
 -8.4845845619957339E-02 a       979     1     1     2     4
  5.9419689107230023E-01 a       980     1     1     2     5
 -1.1059886154352357E-01 a       981     1     1     2     6
  1.2630897674718486E+00 a       982     1     1     2     7
 -4.1498470821449918E-01 a       983     1     1     2     8
 -2.0734818520469672E-01 a       984     1     1     2     9
  3.8644963478828488E-02 a       985     1     1     2    10
 -3.0568835805343304E+00 a       986     1     1     2    11
  1.4179934383759190E+00 a       987     1     1     2    12
 -1.9071646794646069E+00 a       988     1     1     2    13
 -4.7140189626701168E-01 a       989     1     1     2    14
  2.1389609109081387E-01 a       990     1     1     2    15
  1.1192659703761760E+00 a       991     1     2     2     1
  1.9042555816229305E+00 a       992     1     2     2     2
 -2.2021854838533583E-01 a       993     1     2     2     3
 -3.9815263728659747E-02 a       994     1     2     2     4
 -9.9123084524444849E-01 a       995     1     2     2     5
  5.8365226804869896E-01 a       996     1     2     2     6
 -6.2642343234142850E-01 a       997     1     2     2     7
  1.0639346702691026E-01 a       998     1     2     2     8
  1.1984735351354112E+00 a       999     1     2     2     9
 -8.6418299698168288E-01 a      1000     1     2     2    10
  5.8758117666929836E-02 a      1001     1     2     2    11
  2.7373873342022020E-01 a      1002     1     2     2    12
 -1.9981833515882259E+00 a      1003     1     2     2    13
  1.1781346796786920E+00 a      1004     1     2     2    14
 -8.4409786035260470E-01 a      1005     1     2     2    15
  1.5087362327006677E+00 a      1006     1     3     2     1
  9.6897371368918683E-01 a      1007     1     3     2     2
 -1.7945019865142045E+00 a      1008     1     3     2     3
  1.0987848056394920E+00 a      1009     1     3     2     4
  8.4387959972625687E-02 a      1010     1     3     2     5
 -1.4216548415389911E+00 a      1011     1     3     2     6
  3.4887682058235514E-01 a      1012     1     3     2     7
  8.1901788335040548E-01 a      1013     1     3     2     8
 -1.0088425490139235E+00 a      1014     1     3     2     9
  1.2043494195209967E-01 a      1015     1     3     2    10
 -7.8692498228082136E-02 a      1016     1     3     2    11
 -1.5650770175376674E-01 a      1017     1     3     2    12
  7.6115376265384138E-01 a      1018     1     3     2    13
 -2.5716851649004724E+00 a      1019     1     3     2    14
  2.9875959087872461E-01 a      1020     1     3     2    15
 -5.3535060521733002E-01 a      1021     1     4     2     1
 -2.4862427199847270E-01 a      1022     1     4     2     2
 -1.6210258191914180E+00 a      1023     1     4     2     3
 -1.0580296696079282E-01 a      1024     1     4     2     4
 -1.1210948850732629E+00 a      1025     1     4     2     5
 -1.2069007814151367E-01 a      1026     1     4     2     6
  8.9571235308686525E-01 a      1027     1     4     2     7
 -7.4293245678232134E-01 a      1028     1     4     2     8
  7.3310190379284812E-01 a      1029     1     4     2     9
  4.9282144807986250E-01 a      1030     1     4     2    10
 -1.5490943760915746E-01 a      1031     1     4     2    11
  1.2482586336752084E+00 a      1032     1     4     2    12
  7.0859150583365615E-01 a      1033     1     4     2    13
  1.9365247941719708E+00 a      1034     1     4     2    14
  2.7443393530968696E-01 a      1035     1     4     2    15
 -2.9583251362949793E-02 a      1036     1     5     2     1
 -4.6849268107332187E-01 a      1037     1     5     2     2
  8.1126759440294827E-01 a      1038     1     5     2     3
 -5.1269330892250931E-01 a      1039     1     5     2     4
 -7.0138570951888846E-01 a      1040     1     5     2     5
  4.0489298216709740E-01 a      1041     1     5     2     6
 -1.5610779137262474E+00 a      1042     1     5     2     7
 -7.7016571486580199E-01 a      1043     1     5     2     8
  5.2523454533625058E-01 a      1044     1     5     2     9
  6.5354544751851110E-02 a      1045     1     5     2    10
 -1.3780588835726870E+00 a      1046     1     5     2    11
 -1.4407898837475559E+00 a      1047     1     5     2    12
  3.9625421686563972E-01 a      1048     1     5     2    13
 -2.6770154796379814E-01 a      1049     1     5     2    14
 -1.0783274608772886E+00 a      1050     1     5     2    15
  1.6129305330619809E-01 a      1051     1     6     2     1
  8.4528161666808432E-01 a      1052     1     6     2     2
 -1.2545248311205528E+00 a      1053     1     6     2     3
  9.3988816302374967E-01 a      1054     1     6     2     4
 -2.1086784257133688E+00 a      1055     1     6     2     5
  4.1018735759282630E-02 a      1056     1     6     2     6
 -1.2675637919981684E+00 a      1057     1     6     2     7
 -1.2192993643425192E+00 a      1058     1     6     2     8
  9.5556185601126153E-01 a      1059     1     6     2     9
 -1.3804166804252838E+00 a      1060     1     6     2    10
  1.5695064807914749E+00 a      1061     1     6     2    11
 -1.4820135170525088E+00 a      1062     1     6     2    12
  7.7601000257186581E-01 a      1063     1     6     2    13
 -1.5017092312413188E-01 a      1064     1     6     2    14
 -1.4988702446054438E+00 a      1065     1     6     2    15
 -3.0699380589988551E-01 a      1066     1     7     2     1
  1.6067809686617901E-01 a      1067     1     7     2     2
 -1.2050915797235258E+00 a      1068     1     7     2     3
  1.0687228065603664E+00 a      1069     1     7     2     4
  4.4069004401723311E-01 a      1070     1     7     2     5
 -6.5583835453308570E-01 a      1071     1     7     2     6
  7.3112691223256610E-01 a      1072     1     7     2     7
 -5.9710216727793675E-01 a      1073     1     7     2     8
  3.2330742182597927E-01 a      1074     1     7     2     9
  1.0294798152766138E+00 a      1075     1     7     2    10
 -1.2835504946956637E+00 a      1076     1     7     2    11
  7.4213992049540367E-01 a      1077     1     7     2    12
 -5.2413018182839632E-01 a      1078     1     7     2    13
  1.4514668872822629E+00 a      1079     1     7     2    14
  5.4896221692052860E-01 a      1080     1     7     2    15
 -2.3325298931304173E+00 a      1081     1     8     2     1
 -6.4382134347939857E-01 a      1082     1     8     2     2
  3.6572238192186440E-01 a      1083     1     8     2     3
 -9.0711369497408711E-01 a      1084     1     8     2     4
  2.7002036181128459E+00 a      1085     1     8     2     5
  1.0621515049770698E+00 a      1086     1     8     2     6
  1.7531288151530966E+00 a      1087     1     8     2     7
  2.5699928909406018E+00 a      1088     1     8     2     8
  7.7041452011738665E-01 a      1089     1     8     2     9
  1.1316335612378394E+00 a      1090     1     8     2    10
  9.5098156866240269E-01 a      1091     1     8     2    11
  2.0358049711327162E+00 a      1092     1     8     2    12
  7.3606978822547409E-01 a      1093     1     8     2    13
  1.5287943599398064E+00 a      1094     1     8     2    14
  1.9213036630914224E+00 a      1095     1     8     2    15
  6.0722056455095663E-01 a      1096     1     9     2     1
  1.5130562687898791E-01 a      1097     1     9     2     2
 -5.6712963976850650E-01 a      1098     1     9     2     3
 -3.8699937396112695E-02 a      1099     1     9     2     4
 -6.9783853387929273E-01 a      1100     1     9     2     5
 -5.3105630045609875E-01 a      1101     1     9     2     6
 -7.6174811267832609E-01 a      1102     1     9     2     7
 -3.6657874822819160E-02 a      1103     1     9     2     8
 -1.7641884313735290E-01 a      1104     1     9     2     9
  1.2892073948876795E-01 a      1105     1     9     2    10
  4.9577694447035464E-01 a      1106     1     9     2    11
 -5.8233853275035630E-01 a      1107     1     9     2    12
  3.8635542264301453E-01 a      1108     1     9     2    13
 -1.4286292872117561E+00 a      1109     1     9     2    14
 -8.1075243343908143E-01 a      1110     1     9     2    15
  3.2881731013264481E-01 a      1111     1    10     2     1
  1.3592729100951709E-01 a      1112     1    10     2     2
  1.0890342112384865E+00 a      1113     1    10     2     3
 -1.3821276775549649E+00 a      1114     1    10     2     4
 -1.3947548616045122E+00 a      1115     1    10     2     5
  9.8434690783515566E-01 a      1116     1    10     2     6
 -9.3746669953535999E-01 a      1117     1    10     2     7
 -7.1532382039212050E-01 a      1118     1    10     2     8
  1.5619285276960124E+00 a      1119     1    10     2     9
 -2.4666443891610171E-01 a      1120     1    10     2    10
  4.9523564839450868E-01 a      1121     1    10     2    11
 -4.6315925674268600E-02 a      1122     1    10     2    12
  6.8560720196650882E-02 a      1123     1    10     2    13
  2.2913714847895950E+00 a      1124     1    10     2    14
 -1.0634302423995412E+00 a      1125     1    10     2    15
 -9.3851900468363769E-01 a      1126     1    11     2     1
  3.9308048194998703E-02 a      1127     1    11     2     2
  6.7092676248303240E-01 a      1128     1    11     2     3
  3.6184580814781314E-01 a      1129     1    11     2     4
  5.1218398745238403E-01 a      1130     1    11     2     5
  3.9334465070644498E-01 a      1131     1    11     2     6
 -1.0501699344283565E-01 a      1132     1    11     2     7
  3.1853273268660093E-01 a      1133     1    11     2     8
  8.8382377579918459E-01 a      1134     1    11     2     9
  1.9881502610275423E-02 a      1135     1    11     2    10
  2.0858798036569506E-02 a      1136     1    11     2    11
 -3.5540540800164477E-01 a      1137     1    11     2    12
 -3.4518514438856257E-01 a      1138     1    11     2    13
 -6.3561949345911395E-01 a      1139     1    11     2    14
  2.2853930902224023E-01 a      1140     1    11     2    15
  4.8840563471256621E-01 a      1141     1    12     2     1
  1.0050173984495493E-01 a      1142     1    12     2     2
 -9.5951502075353723E-01 a      1143     1    12     2     3
  1.6039497297076744E-01 a      1144     1    12     2     4
 -3.6202799166772287E-01 a      1145     1    12     2     5
 -2.3980063752078742E-01 a      1146     1    12     2     6
  7.0249305378725480E-01 a      1147     1    12     2     7
  4.9571790341101296E-01 a      1148     1    12     2     8
 -1.2534190891159638E-01 a      1149     1    12     2     9
  1.5594223234401910E-02 a      1150     1    12     2    10
  2.2032548828671444E-01 a      1151     1    12     2    11
  6.2262449366237621E-02 a      1152     1    12     2    12
  8.2618578756208250E-01 a      1153     1    12     2    13
  9.5088052233770382E-01 a      1154     1    12     2    14
  1.0277859682021782E+00 a      1155     1    12     2    15
 -8.7745575742099047E-01 a      1156     1    13     2     1
  1.5334617927665219E+00 a      1157     1    13     2     2
  1.4825374315986932E+00 a      1158     1    13     2     3
  5.4387394783515075E-01 a      1159     1    13     2     4
  6.6630731059663073E-01 a      1160     1    13     2     5
  7.9438966229253560E-01 a      1161     1    13     2     6
 -6.0620648964274038E-01 a      1162     1    13     2     7
  1.4135698540644666E+00 a      1163     1    13     2     8
  1.9597079650588283E+00 a      1164     1    13     2     9
 -1.2877367561396933E+00 a      1165     1    13     2    10
  3.1669975814420614E-01 a      1166     1    13     2    11
 -4.8665930396828205E-01 a      1167     1    13     2    12
 -1.1035194641433017E+00 a      1168     1    13     2    13
  1.3783109077311555E+00 a      1169     1    13     2    14
 -7.9755514396674509E-01 a      1170     1    13     2    15
 -1.2119550630226938E+00 a      1171     1    14     2     1
 -2.1072498027557615E-01 a      1172     1    14     2     2
 -1.4340841001929332E+00 a      1173     1    14     2     3
 -3.3583163698548950E+00 a      1174     1    14     2     4
  2.4469031186371564E+00 a      1175     1    14     2     5
  1.0820747256653664E+00 a      1176     1    14     2     6
  1.2299606345706204E+00 a      1177     1    14     2     7
  4.0237710269324998E+00 a      1178     1    14     2     8
 -5.5491315894708881E-01 a      1179     1    14     2     9
  2.3698987840695280E+00 a      1180     1    14     2    10
  5.7786733128656997E-01 a      1181     1    14     2    11
  1.4373244286623210E+00 a      1182     1    14     2    12
  1.0265271876788542E+00 a      1183     1    14     2    13
  2.5562180622126968E-01 a      1184     1    14     2    14
  1.0884590158272216E+00 a      1185     1    14     2    15
 -1.5897312195201461E+00 a      1186     1    15     2     1
 -2.9164497603294981E-01 a      1187     1    15     2     2
  9.1915345328123721E-01 a      1188     1    15     2     3
  1.0249214416959509E+00 a      1189     1    15     2     4
  7.7296005757545427E-01 a      1190     1    15     2     5
  1.6520337698482441E+00 a      1191     1    15     2     6
  5.9772398210081024E-01 a      1192     1    15     2     7
  6.5889863773639445E-01 a      1193     1    15     2     8
  5.6694640011074791E-02 a      1194     1    15     2     9
 -2.9611215673517211E-01 a      1195     1    15     2    10
 -2.2571296749397605E+00 a      1196     1    15     2    11
  1.7530397566410323E+00 a      1197     1    15     2    12
 -7.2810832407063986E-01 a      1198     1    15     2    13
  1.9548158868090246E+00 a      1199     1    15     2    14
  1.7091339117031168E-01 a      1200     1    15     2    15
  1.3290260528272435E+00 b      1201     2     1
 -2.0358636996545880E+00 b      1202     2     2
 -7.3224521415755695E-01 b      1203     2     3
  1.2306873450821461E-01 b      1204     2     4
  5.0279702331110698E-01 b      1205     2     5
 -2.2083393501030781E+00 b      1206     2     6
 -9.1214997909495305E-02 b      1207     2     7
 -1.3454450923872834E+00 b      1208     2     8
 -1.1564604988443630E+00 b      1209     2     9
  8.4742606061352543E-01 b      1210     2    10
 -9.0912787533611839E-01 b      1211     2    11
 -2.1808852543899295E+00 b      1212     2    12
  2.7657104434066015E-01 b      1213     2    13
 -2.7206691417105433E+00 b      1214     2    14
  1.6600315842265323E+00 b      1215     2    15
  3.3083690015689388E-01 a      1216     2     1     3     1
 -5.2005259647276303E-01 a      1217     2     2     3     1
  1.9529050441460211E-01 a      1218     2     3     3     1
  6.3524649103763364E-01 a      1219     2     4     3     1
 -3.3512867644543237E-01 a      1220     2     5     3     1
  9.1366475210502618E-01 a      1221     2     6     3     1
  9.5413425382610784E-01 a      1222     2     7     3     1
  3.6093321932173256E-01 a      1223     2     8     3     1
 -2.1894113004281550E+00 a      1224     2     9     3     1
  7.0539909017160696E-01 a      1225     2    10     3     1
  6.7668467439535140E-01 a      1226     2    11     3     1
 -3.3533778908414374E-01 a      1227     2    12     3     1
 -2.3656709439059928E-01 a      1228     2    13     3     1
  3.1774788302174767E-01 a      1229     2    14     3     1
 -9.4216955781896816E-01 a      1230     2    15     3     1
  6.8607566102756901E-01 b      1231     3     1
