################################################################################
# Neural network connection values (weights and biases).
################################################################################
# Col  Name       Description
################################################################################
# 1    connection Neural network connection value.
# 2    t          Connection type (a = weight, b = bias).
# 3    index      Index enumerating weights.
# 4    l_s        Starting point layer (end point layer for biases).
# 5    n_s        Starting point neuron in starting layer (end point neuron for biases).
# 6    l_e        End point layer.
# 7    n_e        End point neuron in end layer.
################################################################################
#                      1 2         3     4     5     6     7
#             connection t     index   l_s   n_s   l_e   n_e
############################################################
  8.1918302310666979E-01 a         1     0     1     1     1
  1.5189246376030676E+00 a         2     0     1     1     2
  5.5823682447552370E-01 a         3     0     1     1     3
  8.4772445133060437E-01 a         4     0     1     1     4
  2.2660442687593579E-01 a         5     0     1     1     5
  9.6501734480175627E-01 a         6     0     1     1     6
  1.2501310961873247E-01 a         7     0     1     1     7
 -3.8057474325409851E-01 a         8     0     1     1     8
  5.9733342404067014E-01 a         9     0     1     1     9
  1.6646149704651608E-01 a        10     0     1     1    10
  5.8298089597105779E-02 a        11     0     1     1    11
 -1.3388016519967840E+00 a        12     0     1     1    12
  7.7198616715630797E-01 a        13     0     1     1    13
 -3.2767899238999632E-01 a        14     0     1     1    14
  8.4083934055814358E-01 a        15     0     1     1    15
  8.7308289565628694E-01 a        16     0     2     1     1
 -7.2239597552102808E-01 a        17     0     2     1     2
 -4.1014267364051615E-01 a        18     0     2     1     3
  1.4193350528624940E-01 a        19     0     2     1     4
  3.9272048392537501E-01 a        20     0     2     1     5
  1.8822612469801189E-01 a        21     0     2     1     6
  6.3938495149570562E-01 a        22     0     2     1     7
  2.1425749083454692E-02 a        23     0     2     1     8
 -6.0956782235129736E-01 a        24     0     2     1     9
  1.7091158222671439E+00 a        25     0     2     1    10
  4.1594984695861864E-01 a        26     0     2     1    11
 -1.9973711031961168E-02 a        27     0     2     1    12
  9.4903046749547637E-01 a        28     0     2     1    13
 -5.5656809689335229E-01 a        29     0     2     1    14
 -1.0357913756388547E-01 a        30     0     2     1    15
 -5.7278291310102147E-01 a        31     0     3     1     1
  2.7263045186041595E-02 a        32     0     3     1     2
  7.2461310898073761E-01 a        33     0     3     1     3
  1.0802648850907810E+00 a        34     0     3     1     4
 -6.6345799366905145E-01 a        35     0     3     1     5
  3.0228921996413011E-01 a        36     0     3     1     6
  6.8588449137304730E-01 a        37     0     3     1     7
 -9.1287468761990187E-01 a        38     0     3     1     8
 -8.1802414481464372E-02 a        39     0     3     1     9
  1.3280176936052859E-01 a        40     0     3     1    10
 -6.8618021052211306E-02 a        41     0     3     1    11
 -7.4151349036597725E-01 a        42     0     3     1    12
  1.8701078827382786E-01 a        43     0     3     1    13
  4.0563711359151594E-01 a        44     0     3     1    14
 -3.0426180399463088E-01 a        45     0     3     1    15
  1.2103222998758527E+00 a        46     0     4     1     1
  2.8883414140811003E-01 a        47     0     4     1     2
 -4.3187662018851408E-01 a        48     0     4     1     3
 -4.2376685411257897E-01 a        49     0     4     1     4
  7.0295998353967060E-01 a        50     0     4     1     5
  1.1611580749514721E+00 a        51     0     4     1     6
  1.0043771190732165E+00 a        52     0     4     1     7
 -6.3170366386725718E-01 a        53     0     4     1     8
 -3.5003906874125718E-01 a        54     0     4     1     9
  3.9779733580927296E-01 a        55     0     4     1    10
 -2.7532470569734301E-02 a        56     0     4     1    11
  1.2338989093724522E+00 a        57     0     4     1    12
 -1.0285380888799966E+00 a        58     0     4     1    13
 -1.3173584470231517E-01 a        59     0     4     1    14
 -9.0725271321762568E-01 a        60     0     4     1    15
  5.0988496662300731E-01 a        61     0     5     1     1
 -3.2100901982744728E-01 a        62     0     5     1     2
 -7.1560329700889005E-02 a        63     0     5     1     3
 -9.2945135131824153E-01 a        64     0     5     1     4
 -3.8731637225129872E-02 a        65     0     5     1     5
  3.0473321309964257E-02 a        66     0     5     1     6
  2.4115237487581159E-01 a        67     0     5     1     7
  8.2220977977284992E-01 a        68     0     5     1     8
 -3.5044321291195768E-01 a        69     0     5     1     9
 -2.7424787996782585E-01 a        70     0     5     1    10
 -4.7552520575723950E-01 a        71     0     5     1    11
 -5.3642957792003898E-01 a        72     0     5     1    12
 -6.2569539343981773E-01 a        73     0     5     1    13
  3.4556953376235988E-01 a        74     0     5     1    14
  7.9663825980876479E-01 a        75     0     5     1    15
  9.5945571912935423E-01 a        76     0     6     1     1
  3.2134176646349438E-01 a        77     0     6     1     2
  3.5288627555427066E-01 a        78     0     6     1     3
  8.2908205868151874E-01 a        79     0     6     1     4
 -3.6328552773923944E-01 a        80     0     6     1     5
  1.0704492754408650E+00 a        81     0     6     1     6
  1.5044692541785489E+00 a        82     0     6     1     7
  5.8982395694634837E-01 a        83     0     6     1     8
 -3.3787972811606420E-01 a        84     0     6     1     9
 -5.4547989698779842E-01 a        85     0     6     1    10
 -9.0860854686378278E-01 a        86     0     6     1    11
 -6.9521534873110180E-01 a        87     0     6     1    12
 -6.1581385957947798E-01 a        88     0     6     1    13
  3.0215619324697529E-01 a        89     0     6     1    14
  3.8920678065226400E-01 a        90     0     6     1    15
 -1.1331379660819753E-01 a        91     0     7     1     1
 -1.2823082649932118E+00 a        92     0     7     1     2
 -1.0569644892266006E+00 a        93     0     7     1     3
 -8.8741422024769612E-01 a        94     0     7     1     4
  1.0502451482692494E+00 a        95     0     7     1     5
 -7.9116739528623614E-01 a        96     0     7     1     6
  1.4318102217276063E-01 a        97     0     7     1     7
 -1.9057306007216743E-01 a        98     0     7     1     8
 -7.6766394711433739E-01 a        99     0     7     1     9
  5.8595783295226722E-01 a       100     0     7     1    10
 -9.6436370362624521E-02 a       101     0     7     1    11
 -1.5314634802676641E-01 a       102     0     7     1    12
 -8.8983677969126684E-01 a       103     0     7     1    13
 -2.0195391642231841E-01 a       104     0     7     1    14
 -2.6985749075375981E-01 a       105     0     7     1    15
  6.0707757813475061E-01 a       106     0     8     1     1
 -2.1398283673305936E-02 a       107     0     8     1     2
  8.7757249637758477E-03 a       108     0     8     1     3
 -2.3712170873246724E-01 a       109     0     8     1     4
  8.2175123003072470E-01 a       110     0     8     1     5
  6.1290404745732019E-01 a       111     0     8     1     6
  1.0098583382603635E-01 a       112     0     8     1     7
 -7.3366116384766955E-01 a       113     0     8     1     8
 -7.8163569870831617E-01 a       114     0     8     1     9
  8.4892454559777394E-03 a       115     0     8     1    10
 -4.9595806405045428E-01 a       116     0     8     1    11
 -1.1482057724409420E+00 a       117     0     8     1    12
 -4.8296476046229109E-02 a       118     0     8     1    13
 -3.3882389608709701E-01 a       119     0     8     1    14
  1.7361534784033938E-01 a       120     0     8     1    15
  6.6651251733136740E-02 a       121     0     9     1     1
 -5.8637614654467662E-01 a       122     0     9     1     2
 -6.6673227187324646E-01 a       123     0     9     1     3
  8.2126227131329710E-01 a       124     0     9     1     4
  4.1757673030869558E-01 a       125     0     9     1     5
 -6.9601744179167913E-01 a       126     0     9     1     6
 -6.1418634260697158E-01 a       127     0     9     1     7
  1.1885969309879285E+00 a       128     0     9     1     8
 -3.5592411422694142E-01 a       129     0     9     1     9
 -6.7522333815465252E-01 a       130     0     9     1    10
 -8.7586070413299522E-01 a       131     0     9     1    11
  6.9738945836540633E-01 a       132     0     9     1    12
  2.4836810896201628E-01 a       133     0     9     1    13
  5.9129961177536328E-01 a       134     0     9     1    14
 -2.9873852230996084E-01 a       135     0     9     1    15
 -1.9380314741013827E+00 a       136     0    10     1     1
 -1.2817073262695760E+00 a       137     0    10     1     2
 -1.3481997960633613E-01 a       138     0    10     1     3
 -6.6509972150088958E-01 a       139     0    10     1     4
  6.0374615986358471E-01 a       140     0    10     1     5
  4.0773193023111770E-01 a       141     0    10     1     6
  7.3239070102763104E-01 a       142     0    10     1     7
  4.3609907167014111E-01 a       143     0    10     1     8
  3.8661135074782016E-01 a       144     0    10     1     9
 -9.2664418722508979E-01 a       145     0    10     1    10
 -5.8107523703736619E-01 a       146     0    10     1    11
 -2.1679945636492526E-01 a       147     0    10     1    12
 -4.3661086311950131E-01 a       148     0    10     1    13
 -1.1934014584992003E+00 a       149     0    10     1    14
  1.0759499199854101E+00 a       150     0    10     1    15
  9.3557884865515931E-02 a       151     0    11     1     1
  2.5079555262116399E-01 a       152     0    11     1     2
 -2.6294172619050499E-01 a       153     0    11     1     3
 -1.4471872546797864E+00 a       154     0    11     1     4
 -1.9633487100619637E-01 a       155     0    11     1     5
  7.1978247890783742E-01 a       156     0    11     1     6
  1.0494429057687935E-01 a       157     0    11     1     7
  1.3643414805326706E-01 a       158     0    11     1     8
 -2.9722997924417061E-01 a       159     0    11     1     9
  4.8461159109779917E-01 a       160     0    11     1    10
  8.4026266510101166E-01 a       161     0    11     1    11
  4.3105993604961944E-02 a       162     0    11     1    12
  9.7901192226134998E-02 a       163     0    11     1    13
 -1.8029704550786960E+00 a       164     0    11     1    14
 -5.6247499135352153E-01 a       165     0    11     1    15
 -2.1175074684154995E+00 a       166     0    12     1     1
  4.7522387886031725E-01 a       167     0    12     1     2
  9.4645811557660275E-02 a       168     0    12     1     3
 -2.4553366346364933E-01 a       169     0    12     1     4
  1.3889333550173268E+00 a       170     0    12     1     5
 -2.3157497588306236E-01 a       171     0    12     1     6
 -1.1809703659586854E+00 a       172     0    12     1     7
  6.4069426598851342E-01 a       173     0    12     1     8
  1.4055255105264888E+00 a       174     0    12     1     9
 -9.2669206789105329E-01 a       175     0    12     1    10
  1.0142831471251150E+00 a       176     0    12     1    11
 -1.4114985430476619E+00 a       177     0    12     1    12
  1.3977219943083761E+00 a       178     0    12     1    13
 -1.5740496152159700E-01 a       179     0    12     1    14
 -6.9152411794837765E-01 a       180     0    12     1    15
  1.2834496924233083E+00 a       181     0    13     1     1
  1.3984892374935523E+00 a       182     0    13     1     2
  1.0366734785902332E+00 a       183     0    13     1     3
  9.9430281602007731E-01 a       184     0    13     1     4
 -1.3021310556298427E+00 a       185     0    13     1     5
  2.2217476229160140E+00 a       186     0    13     1     6
  1.2616358718677783E+00 a       187     0    13     1     7
  4.5179216480608803E-01 a       188     0    13     1     8
  1.1925804757780853E+00 a       189     0    13     1     9
  7.6486002174205203E-02 a       190     0    13     1    10
  1.7990322606358655E+00 a       191     0    13     1    11
 -6.7174219367804233E-01 a       192     0    13     1    12
 -4.5436525765383173E-01 a       193     0    13     1    13
  1.5264168482844804E+00 a       194     0    13     1    14
 -1.2427250053265089E+00 a       195     0    13     1    15
  4.8696953723817575E+00 a       196     0    14     1     1
  1.5572007896922335E+00 a       197     0    14     1     2
  3.7698003449787010E-01 a       198     0    14     1     3
  7.7425328764729595E-01 a       199     0    14     1     4
  8.6649498194249752E-01 a       200     0    14     1     5
  8.0057671053223300E-01 a       201     0    14     1     6
 -2.1456993459948612E-01 a       202     0    14     1     7
  1.4567972905698399E+00 a       203     0    14     1     8
 -2.9723472325017299E+00 a       204     0    14     1     9
  3.5214722617379155E+00 a       205     0    14     1    10
 -1.3246482120994393E-01 a       206     0    14     1    11
  1.2706128455449517E+00 a       207     0    14     1    12
  3.4081116398376349E-01 a       208     0    14     1    13
 -3.4733187682462108E-01 a       209     0    14     1    14
 -9.5404744560407473E-01 a       210     0    14     1    15
  6.0394972629449395E-01 a       211     0    15     1     1
  8.8251796076691991E-01 a       212     0    15     1     2
  1.8976680863021653E-01 a       213     0    15     1     3
 -7.7637267410632638E-01 a       214     0    15     1     4
  1.6972547115645746E+00 a       215     0    15     1     5
 -1.6750821206034276E+00 a       216     0    15     1     6
 -4.2150356588460747E-01 a       217     0    15     1     7
  7.4702910567860314E-01 a       218     0    15     1     8
 -1.6333271598113158E-01 a       219     0    15     1     9
  1.6850782734497223E+00 a       220     0    15     1    10
 -8.7265333722042482E-01 a       221     0    15     1    11
  1.4425475673790000E-01 a       222     0    15     1    12
 -8.0253551777063759E-01 a       223     0    15     1    13
 -1.7404163941189010E+00 a       224     0    15     1    14
  1.0755003161462553E+00 a       225     0    15     1    15
 -1.0506528335114143E+00 a       226     0    16     1     1
  4.1373348114883340E-01 a       227     0    16     1     2
 -1.5287982839066960E-01 a       228     0    16     1     3
 -3.9302677497375449E-01 a       229     0    16     1     4
 -8.0471204220027170E-01 a       230     0    16     1     5
 -3.2071386839022727E-02 a       231     0    16     1     6
 -4.8556498472854898E-01 a       232     0    16     1     7
 -7.9042526977510863E-01 a       233     0    16     1     8
  1.0302390468459333E+00 a       234     0    16     1     9
 -6.3730003492513199E-01 a       235     0    16     1    10
  8.6074573271173960E-02 a       236     0    16     1    11
 -4.5711910021230590E-01 a       237     0    16     1    12
  9.4316225895698796E-02 a       238     0    16     1    13
 -5.1531059064439921E-01 a       239     0    16     1    14
  2.4105412268600276E-01 a       240     0    16     1    15
 -1.3396503848988206E-01 a       241     0    17     1     1
 -2.9706785447945849E-01 a       242     0    17     1     2
 -4.1552493220735864E-01 a       243     0    17     1     3
 -3.8280660348430828E-01 a       244     0    17     1     4
  1.2098005406332446E+00 a       245     0    17     1     5
 -5.2152104174468483E-01 a       246     0    17     1     6
  6.3868707374431044E-01 a       247     0    17     1     7
 -9.5452819880106385E-02 a       248     0    17     1     8
 -8.4389930315598094E-01 a       249     0    17     1     9
  7.2319723313035544E-01 a       250     0    17     1    10
 -4.0004752043879516E-02 a       251     0    17     1    11
 -4.7742988202423831E-01 a       252     0    17     1    12
 -1.1142622100811253E-01 a       253     0    17     1    13
 -1.8518778684368684E-01 a       254     0    17     1    14
  8.0096778274926506E-02 a       255     0    17     1    15
 -1.0575408143293861E+00 a       256     0    18     1     1
  1.1901850516053036E+00 a       257     0    18     1     2
 -7.5843544473651026E-01 a       258     0    18     1     3
 -3.3442394547169924E-01 a       259     0    18     1     4
 -7.3995576388486639E-02 a       260     0    18     1     5
  8.5093790990406049E-01 a       261     0    18     1     6
  8.5632718495103122E-01 a       262     0    18     1     7
 -2.0459297349086948E-02 a       263     0    18     1     8
 -7.8171493287655280E-01 a       264     0    18     1     9
  1.4921995487435202E-01 a       265     0    18     1    10
 -1.4648038418345901E+00 a       266     0    18     1    11
 -4.0585715808141204E-01 a       267     0    18     1    12
 -1.1634765154801872E-01 a       268     0    18     1    13
 -5.0516333207006270E-01 a       269     0    18     1    14
 -1.0951795381950709E+00 a       270     0    18     1    15
  7.8253138554479795E-01 a       271     0    19     1     1
  4.7319496474272171E-01 a       272     0    19     1     2
 -2.3581277573417165E+00 a       273     0    19     1     3
  2.1154051849144123E-01 a       274     0    19     1     4
  3.5589877545852344E-01 a       275     0    19     1     5
 -3.9556627275493361E-01 a       276     0    19     1     6
  4.4308119246945915E-01 a       277     0    19     1     7
 -8.3310739312848914E-01 a       278     0    19     1     8
 -8.0213802779458421E-01 a       279     0    19     1     9
 -1.3288278354041022E-01 a       280     0    19     1    10
  1.7467297296575224E+00 a       281     0    19     1    11
 -1.1616938996099807E-01 a       282     0    19     1    12
  8.4659696236260273E-01 a       283     0    19     1    13
  6.6381245743534967E-01 a       284     0    19     1    14
 -3.0046370162628622E-01 a       285     0    19     1    15
 -5.3131809841670896E-01 a       286     0    20     1     1
  3.1112895766223969E-01 a       287     0    20     1     2
 -8.5160089937454153E-01 a       288     0    20     1     3
 -2.3137903239096994E-01 a       289     0    20     1     4
 -2.1900410917171809E-01 a       290     0    20     1     5
  1.4973202400602275E+00 a       291     0    20     1     6
  8.6109082175853224E-01 a       292     0    20     1     7
 -5.0606659640552831E-01 a       293     0    20     1     8
  7.9387432342858955E-01 a       294     0    20     1     9
 -6.8497360848101319E-01 a       295     0    20     1    10
  1.0945574341529072E+00 a       296     0    20     1    11
  1.7285683522766071E+00 a       297     0    20     1    12
  1.7478517028340257E+00 a       298     0    20     1    13
  9.5325740529290007E-02 a       299     0    20     1    14
 -1.0155300960696276E+00 a       300     0    20     1    15
 -1.7345630356374778E-01 a       301     0    21     1     1
 -8.0531567371506418E-01 a       302     0    21     1     2
  6.9529715296422778E-01 a       303     0    21     1     3
 -1.7791499286352823E+00 a       304     0    21     1     4
 -2.2765240302259734E-01 a       305     0    21     1     5
 -3.8725414458124380E-01 a       306     0    21     1     6
 -3.8620897521671738E-01 a       307     0    21     1     7
  7.2360521096754921E-02 a       308     0    21     1     8
 -6.7336176442771145E-01 a       309     0    21     1     9
 -3.7599682847688021E-01 a       310     0    21     1    10
  7.7335641877776706E-01 a       311     0    21     1    11
  1.6616985158251996E+00 a       312     0    21     1    12
  1.1265025882985737E+00 a       313     0    21     1    13
  8.3330767267703984E-02 a       314     0    21     1    14
 -1.0362502651305883E+00 a       315     0    21     1    15
 -9.4702355148394302E-01 a       316     0    22     1     1
 -1.6555090999470951E-01 a       317     0    22     1     2
 -5.8241023821057425E-01 a       318     0    22     1     3
  1.5664406023933632E+00 a       319     0    22     1     4
 -2.0091452746738780E+00 a       320     0    22     1     5
 -3.7882262571233399E-01 a       321     0    22     1     6
  1.1341879266160748E+00 a       322     0    22     1     7
  1.0105692509965971E+00 a       323     0    22     1     8
  6.2736618592703436E-02 a       324     0    22     1     9
 -9.4808904766197577E-01 a       325     0    22     1    10
  1.8660248405204318E+00 a       326     0    22     1    11
  2.5976135271970796E-01 a       327     0    22     1    12
 -6.6291130612050908E-01 a       328     0    22     1    13
 -1.5290831616973690E+00 a       329     0    22     1    14
  1.8197449147038100E-01 a       330     0    22     1    15
 -1.7000891056997838E-01 a       331     0    23     1     1
  2.2221833987760550E-01 a       332     0    23     1     2
  4.7005905320167407E-01 a       333     0    23     1     3
  4.4396414830526287E-01 a       334     0    23     1     4
 -3.7608210463202835E-01 a       335     0    23     1     5
 -2.9857146044779009E-01 a       336     0    23     1     6
 -8.0761976113223721E-01 a       337     0    23     1     7
 -1.8925114313624861E-01 a       338     0    23     1     8
  7.3325457729882093E-01 a       339     0    23     1     9
 -1.1228697259694065E+00 a       340     0    23     1    10
 -4.9887589347106043E-01 a       341     0    23     1    11
 -7.7665822187547209E-02 a       342     0    23     1    12
 -5.8982115424227421E-01 a       343     0    23     1    13
  2.1835215693411358E-01 a       344     0    23     1    14
 -1.1541626347358716E-02 a       345     0    23     1    15
  1.4558176661175756E-01 a       346     0    24     1     1
 -3.9121052365181519E-01 a       347     0    24     1     2
 -7.9229194375796375E-01 a       348     0    24     1     3
 -2.5300569549747931E-01 a       349     0    24     1     4
 -4.7297150823986056E-01 a       350     0    24     1     5
  4.7927706570549738E-01 a       351     0    24     1     6
  8.8772526104481075E-01 a       352     0    24     1     7
 -6.2988244318401854E-01 a       353     0    24     1     8
  4.7582800209237375E-01 a       354     0    24     1     9
 -8.1344476249001385E-01 a       355     0    24     1    10
  9.9982728380143171E-01 a       356     0    24     1    11
  9.2176332546108841E-01 a       357     0    24     1    12
 -3.8619232907078249E-01 a       358     0    24     1    13
  1.4931184508571657E-01 a       359     0    24     1    14
 -4.2202970902954684E-01 a       360     0    24     1    15
  1.9126035055430364E+00 a       361     0    25     1     1
 -7.1058730623936250E-02 a       362     0    25     1     2
 -1.2540761932592820E-01 a       363     0    25     1     3
 -5.6466518129870036E-01 a       364     0    25     1     4
  1.2297890561796059E+00 a       365     0    25     1     5
  7.1855250116288116E-01 a       366     0    25     1     6
 -6.7132589614070293E-01 a       367     0    25     1     7
 -1.9384210141214347E-01 a       368     0    25     1     8
  4.3506560752281892E-01 a       369     0    25     1     9
 -5.0553751197326913E-01 a       370     0    25     1    10
 -1.2407141645476032E+00 a       371     0    25     1    11
  9.0990783240372269E-02 a       372     0    25     1    12
  4.3399664082287842E-01 a       373     0    25     1    13
 -4.0730756972852300E-01 a       374     0    25     1    14
  8.2113316327037700E-01 a       375     0    25     1    15
  1.0732623095804601E+00 a       376     0    26     1     1
  9.5494230709193162E-01 a       377     0    26     1     2
  3.9595525935573650E-01 a       378     0    26     1     3
 -6.3134279289156048E-01 a       379     0    26     1     4
 -2.1827919149067254E-01 a       380     0    26     1     5
 -1.0408869600397408E-01 a       381     0    26     1     6
 -3.8582971296133256E-01 a       382     0    26     1     7
  1.6628454816597632E-01 a       383     0    26     1     8
 -1.3009895724522300E+00 a       384     0    26     1     9
  1.0888471501642973E+00 a       385     0    26     1    10
  4.9589120732080960E-01 a       386     0    26     1    11
  9.6611089443099152E-01 a       387     0    26     1    12
 -6.8556047171993480E-03 a       388     0    26     1    13
 -5.3588367891899669E-01 a       389     0    26     1    14
  5.3310351585719173E-01 a       390     0    26     1    15
 -3.6750203180867974E-01 a       391     0    27     1     1
  1.0000757208058467E-01 a       392     0    27     1     2
 -3.5017705846126140E-01 a       393     0    27     1     3
  2.1368827535766841E-01 a       394     0    27     1     4
  1.0467984273278872E+00 a       395     0    27     1     5
 -1.0760944661142503E-02 a       396     0    27     1     6
  2.9906828900052651E-01 a       397     0    27     1     7
 -1.1773520854085864E-01 a       398     0    27     1     8
 -5.2310310982455921E-01 a       399     0    27     1     9
  1.1315005079495060E+00 a       400     0    27     1    10
  2.0068711266204298E-01 a       401     0    27     1    11
 -4.3368103895325122E-01 a       402     0    27     1    12
 -1.9423664820954173E-01 a       403     0    27     1    13
  6.6146305877926970E-02 a       404     0    27     1    14
 -5.0586448950863105E-01 a       405     0    27     1    15
 -1.5207534619885001E+00 a       406     0    28     1     1
  2.0638204532929072E-01 a       407     0    28     1     2
  2.8682991901904586E-01 a       408     0    28     1     3
  3.4613474206064854E-01 a       409     0    28     1     4
 -3.7887815285408371E-03 a       410     0    28     1     5
 -1.1936104067427951E-01 a       411     0    28     1     6
 -1.5139139211031241E+00 a       412     0    28     1     7
 -1.2634425914471809E-01 a       413     0    28     1     8
  1.3367153527384665E+00 a       414     0    28     1     9
  3.7051859596969927E-01 a       415     0    28     1    10
 -6.7928317227096568E-01 a       416     0    28     1    11
 -4.2465329200321311E-01 a       417     0    28     1    12
 -5.0228185301642947E-01 a       418     0    28     1    13
  6.0968389212682883E-01 a       419     0    28     1    14
 -5.4891439884949766E-01 a       420     0    28     1    15
  6.7570044492666259E-01 a       421     0    29     1     1
 -1.6786531878574797E+00 a       422     0    29     1     2
  2.5971920167923596E-01 a       423     0    29     1     3
 -1.9060639213704175E-01 a       424     0    29     1     4
 -1.1195286585975754E+00 a       425     0    29     1     5
 -5.8592552259364161E-01 a       426     0    29     1     6
 -1.5206847431029922E+00 a       427     0    29     1     7
  6.0961086855429214E-01 a       428     0    29     1     8
  6.4975506465982324E-01 a       429     0    29     1     9
  8.9652560821946847E-01 a       430     0    29     1    10
  7.2869215234423579E-01 a       431     0    29     1    11
 -4.6924999401946188E-01 a       432     0    29     1    12
  7.4719603785272148E-02 a       433     0    29     1    13
  1.1638591312598384E-01 a       434     0    29     1    14
  1.0786014004570292E+00 a       435     0    29     1    15
  2.9800925829956648E-01 a       436     0    30     1     1
  5.1003749429992126E-02 a       437     0    30     1     2
  1.2963896091946181E+00 a       438     0    30     1     3
 -1.4757266190649146E-01 a       439     0    30     1     4
  1.1535570363806069E+00 a       440     0    30     1     5
  3.2864118820298055E-01 a       441     0    30     1     6
  4.4528542226625195E-01 a       442     0    30     1     7
 -2.3665638744108541E-01 a       443     0    30     1     8
  7.9936566912769857E-01 a       444     0    30     1     9
  6.7745416398647440E-01 a       445     0    30     1    10
 -8.4676375334624332E-01 a       446     0    30     1    11
  6.7729776344603065E-01 a       447     0    30     1    12
 -5.1017820083474696E-01 a       448     0    30     1    13
  9.7083946726855386E-02 a       449     0    30     1    14
  4.3308511214700279E-01 a       450     0    30     1    15
 -5.9439288278799651E-01 a       451     0    31     1     1
 -5.0395815753716926E-02 a       452     0    31     1     2
  1.3834100837206134E+00 a       453     0    31     1     3
  9.8130492025351290E-02 a       454     0    31     1     4
 -9.1503810592814017E-01 a       455     0    31     1     5
  4.3672332593208668E-01 a       456     0    31     1     6
 -1.0172752926294317E+00 a       457     0    31     1     7
 -1.0097959638376657E+00 a       458     0    31     1     8
 -6.9239254540390582E-01 a       459     0    31     1     9
 -1.6437189689300560E-01 a       460     0    31     1    10
  1.3650525670414268E-01 a       461     0    31     1    11
  2.5759705290201634E-01 a       462     0    31     1    12
  9.8742920165007364E-01 a       463     0    31     1    13
  2.1373164734277411E-01 a       464     0    31     1    14
 -4.3100708826717592E-02 a       465     0    31     1    15
  4.8522289487424247E-01 a       466     0    32     1     1
 -1.2094735685892333E-01 a       467     0    32     1     2
  1.0565538221662343E+00 a       468     0    32     1     3
  1.5802769780140160E+00 a       469     0    32     1     4
 -3.9441457408940939E-01 a       470     0    32     1     5
 -4.2310092793330069E-02 a       471     0    32     1     6
  5.5742522640537162E-01 a       472     0    32     1     7
  2.6565863514308030E-01 a       473     0    32     1     8
 -1.7910056458753568E-01 a       474     0    32     1     9
 -7.4552954568452190E-01 a       475     0    32     1    10
  2.3884637846848028E-01 a       476     0    32     1    11
 -1.2719323109337379E+00 a       477     0    32     1    12
 -3.8342933552418418E-01 a       478     0    32     1    13
 -1.1771381872014344E-01 a       479     0    32     1    14
 -8.4373865764506395E-01 a       480     0    32     1    15
 -8.3356873569250411E-01 a       481     0    33     1     1
  2.8076253602968942E-01 a       482     0    33     1     2
 -3.0308370309649518E-01 a       483     0    33     1     3
  8.2835447123714123E-01 a       484     0    33     1     4
 -3.0968384990638265E-01 a       485     0    33     1     5
  3.0126477060384382E-01 a       486     0    33     1     6
 -1.1832045233112058E+00 a       487     0    33     1     7
 -1.3347249128687586E-01 a       488     0    33     1     8
  5.0399216506406697E-01 a       489     0    33     1     9
 -9.9952782989898743E-03 a       490     0    33     1    10
  1.2154411498277422E+00 a       491     0    33     1    11
 -1.0999007092063690E-01 a       492     0    33     1    12
  3.2824148768035172E-01 a       493     0    33     1    13
  4.8061368320587022E-01 a       494     0    33     1    14
 -7.0351290071351269E-02 a       495     0    33     1    15
  9.9841436427084385E-01 a       496     0    34     1     1
 -1.1325863454794107E+00 a       497     0    34     1     2
  6.6496277133677351E-01 a       498     0    34     1     3
 -5.9936033000922673E-01 a       499     0    34     1     4
 -1.5904443134439958E-01 a       500     0    34     1     5
  2.5193356003458600E-01 a       501     0    34     1     6
  3.3740013674263769E-01 a       502     0    34     1     7
 -1.3200608019676106E+00 a       503     0    34     1     8
  2.8350731701665072E-01 a       504     0    34     1     9
 -9.2875432604682062E-02 a       505     0    34     1    10
 -1.7362231014511081E-01 a       506     0    34     1    11
 -4.2432424084382114E-01 a       507     0    34     1    12
 -8.1047446966942105E-01 a       508     0    34     1    13
 -9.4599915806663146E-02 a       509     0    34     1    14
 -3.6983138809207833E-01 a       510     0    34     1    15
 -2.7988627953623252E-01 a       511     0    35     1     1
  8.4905546497075768E-01 a       512     0    35     1     2
 -5.0992256587505402E-01 a       513     0    35     1     3
 -1.7817855379852771E-01 a       514     0    35     1     4
  1.5357654781143143E-01 a       515     0    35     1     5
 -5.0027789583793714E-01 a       516     0    35     1     6
  3.9186400355783968E-01 a       517     0    35     1     7
 -1.0977395401085589E-01 a       518     0    35     1     8
 -5.4504941519791328E-01 a       519     0    35     1     9
  3.5917733038161131E-01 a       520     0    35     1    10
 -7.4187981555703175E-01 a       521     0    35     1    11
  4.8007179172775349E-01 a       522     0    35     1    12
 -3.9329146592537018E-01 a       523     0    35     1    13
 -1.7911925460062192E-01 a       524     0    35     1    14
 -1.9142148069820833E-01 a       525     0    35     1    15
 -3.2205226183870156E-01 a       526     0    36     1     1
 -4.4681907828508399E-01 a       527     0    36     1     2
  5.9663683514365962E-01 a       528     0    36     1     3
  9.6725347782333326E-02 a       529     0    36     1     4
 -9.2184528443519598E-02 a       530     0    36     1     5
 -1.6644912469296724E-01 a       531     0    36     1     6
  7.7109870590458818E-01 a       532     0    36     1     7
  5.9133470326038828E-01 a       533     0    36     1     8
 -1.6954609284906938E-01 a       534     0    36     1     9
  3.8330637487900177E-01 a       535     0    36     1    10
  1.0495842123542141E+00 a       536     0    36     1    11
 -8.7210808521937766E-01 a       537     0    36     1    12
 -6.6238155220487660E-01 a       538     0    36     1    13
 -1.0833676382181985E-01 a       539     0    36     1    14
 -1.7123012055075984E-01 a       540     0    36     1    15
 -1.4736420526495815E+00 a       541     0    37     1     1
 -5.9708204298375089E-01 a       542     0    37     1     2
  4.5343044300299196E-01 a       543     0    37     1     3
 -3.8771615911346391E-01 a       544     0    37     1     4
 -5.8699351961650592E-01 a       545     0    37     1     5
 -4.7500885940274989E-02 a       546     0    37     1     6
 -7.6024367659398240E-01 a       547     0    37     1     7
  2.2730418583948875E-01 a       548     0    37     1     8
  1.3845219242334943E+00 a       549     0    37     1     9
 -8.7376125500277693E-02 a       550     0    37     1    10
  1.7172577199979361E-01 a       551     0    37     1    11
  7.8961839431079028E-01 a       552     0    37     1    12
  6.1488146434484255E-02 a       553     0    37     1    13
  1.0411188890867338E+00 a       554     0    37     1    14
 -3.9333903959998096E-01 a       555     0    37     1    15
 -6.3581592803807963E-01 a       556     0    38     1     1
 -3.6957847775873542E-01 a       557     0    38     1     2
 -3.0672861695115355E-01 a       558     0    38     1     3
 -1.1964619309045188E-01 a       559     0    38     1     4
  3.8359307455255198E-01 a       560     0    38     1     5
 -6.3801827378391962E-01 a       561     0    38     1     6
 -9.2196459006166354E-01 a       562     0    38     1     7
  5.4044326002078447E-01 a       563     0    38     1     8
  1.3498688861519268E+00 a       564     0    38     1     9
  2.9258716025531867E-01 a       565     0    38     1    10
 -1.8616272550575310E+00 a       566     0    38     1    11
 -1.0704462761721816E+00 a       567     0    38     1    12
 -1.2711131662164679E+00 a       568     0    38     1    13
  6.4443218729657581E-01 a       569     0    38     1    14
  8.5910901653340488E-01 a       570     0    38     1    15
 -2.6045057859305937E-01 a       571     0    39     1     1
 -1.7719664331613169E-01 a       572     0    39     1     2
  1.0532916040125154E-01 a       573     0    39     1     3
  4.1798717751759185E-01 a       574     0    39     1     4
 -1.2120757294154518E+00 a       575     0    39     1     5
 -7.0990102615249384E-01 a       576     0    39     1     6
 -1.0115926319553084E+00 a       577     0    39     1     7
  5.8777103358551286E-01 a       578     0    39     1     8
  4.1016900263232858E-01 a       579     0    39     1     9
 -1.1343371012558006E+00 a       580     0    39     1    10
 -9.9587031062886766E-01 a       581     0    39     1    11
  2.0664099730393536E-02 a       582     0    39     1    12
 -3.9281791738627647E-01 a       583     0    39     1    13
 -5.0457098540525540E-02 a       584     0    39     1    14
  1.3415512960056772E+00 a       585     0    39     1    15
  1.2460803749775631E+00 a       586     0    40     1     1
  4.9872317920719672E-01 a       587     0    40     1     2
 -1.2046400847825753E-01 a       588     0    40     1     3
 -6.4030199316543590E-01 a       589     0    40     1     4
 -4.6435671693004971E-02 a       590     0    40     1     5
 -6.7570057869642852E-01 a       591     0    40     1     6
  1.6284258482777753E-01 a       592     0    40     1     7
  6.2174242133448154E-01 a       593     0    40     1     8
 -7.3113795586843999E-01 a       594     0    40     1     9
 -8.2721072830305609E-02 a       595     0    40     1    10
  5.8441652038025904E-01 a       596     0    40     1    11
  3.4977092760072753E-01 a       597     0    40     1    12
  9.3162356049932227E-01 a       598     0    40     1    13
 -2.9909928296882571E-01 a       599     0    40     1    14
  6.5140617607526363E-01 a       600     0    40     1    15
  6.5588105492832816E-01 a       601     0    41     1     1
  1.2201805669687340E+00 a       602     0    41     1     2
 -5.2871093208667563E-01 a       603     0    41     1     3
  8.5682682648639863E-01 a       604     0    41     1     4
  4.6429158840976448E-01 a       605     0    41     1     5
 -1.9042650931084132E-01 a       606     0    41     1     6
  1.6040953262551166E-01 a       607     0    41     1     7
  3.4291733218595438E-01 a       608     0    41     1     8
  4.0299823748327018E-01 a       609     0    41     1     9
 -1.3055577002950356E+00 a       610     0    41     1    10
  8.9319202665322506E-01 a       611     0    41     1    11
  1.3258656337352845E+00 a       612     0    41     1    12
 -3.3447612880987750E-02 a       613     0    41     1    13
 -4.7801183123902281E-02 a       614     0    41     1    14
  7.9577486468303793E-01 a       615     0    41     1    15
 -4.0399264192400572E-02 a       616     0    42     1     1
 -2.8243314056966334E-01 a       617     0    42     1     2
 -2.5994287124651005E-01 a       618     0    42     1     3
  4.5413586891459023E-01 a       619     0    42     1     4
 -5.8106169305461475E-01 a       620     0    42     1     5
 -9.9565455879286502E-02 a       621     0    42     1     6
 -2.4184726802882384E-01 a       622     0    42     1     7
 -4.8410852974647195E-01 a       623     0    42     1     8
  6.6112091151072438E-01 a       624     0    42     1     9
 -1.4588498961305683E+00 a       625     0    42     1    10
 -8.9678249704006241E-01 a       626     0    42     1    11
  2.3577728441098242E-01 a       627     0    42     1    12
 -5.7986790289430845E-01 a       628     0    42     1    13
  4.3238360264730502E-01 a       629     0    42     1    14
  3.7315227218570263E-01 a       630     0    42     1    15
 -5.4820266191722788E-01 a       631     0    43     1     1
  1.0613865712402264E+00 a       632     0    43     1     2
  2.2397345825203008E-01 a       633     0    43     1     3
  4.7098851625621968E-01 a       634     0    43     1     4
 -1.1460558523847708E+00 a       635     0    43     1     5
  3.5773519978072216E-01 a       636     0    43     1     6
 -2.5036181719035300E-01 a       637     0    43     1     7
  1.9569249762940205E-01 a       638     0    43     1     8
 -6.8887764994353251E-01 a       639     0    43     1     9
 -1.0897517747984402E+00 a       640     0    43     1    10
 -2.2685554745948321E-02 a       641     0    43     1    11
 -5.9335364021513337E-01 a       642     0    43     1    12
 -1.5539229334698841E+00 a       643     0    43     1    13
 -1.6841890341686330E+00 a       644     0    43     1    14
 -4.7965514207148036E-01 a       645     0    43     1    15
 -2.7202658355621862E-01 a       646     0    44     1     1
  5.9284965415000579E-01 a       647     0    44     1     2
  6.6724962515520647E-01 a       648     0    44     1     3
 -8.9914016990142387E-01 a       649     0    44     1     4
 -3.5286468004598720E-01 a       650     0    44     1     5
 -9.7879171616853022E-01 a       651     0    44     1     6
  1.1124134576152447E+00 a       652     0    44     1     7
 -1.7568459652966824E+00 a       653     0    44     1     8
 -6.4376573001345150E-01 a       654     0    44     1     9
 -3.6372427916363866E-02 a       655     0    44     1    10
 -1.6106539422164865E+00 a       656     0    44     1    11
 -2.7528703529504507E-03 a       657     0    44     1    12
  6.0165196546463251E-01 a       658     0    44     1    13
 -8.4032418308520346E-02 a       659     0    44     1    14
 -1.5859499334384253E+00 a       660     0    44     1    15
  1.7138231858837322E-01 a       661     0    45     1     1
  1.3383071964147147E-01 a       662     0    45     1     2
 -1.8660402646808424E-01 a       663     0    45     1     3
 -1.3653816801631883E-02 a       664     0    45     1     4
 -6.2882315305267666E-02 a       665     0    45     1     5
 -1.3358210933555253E-01 a       666     0    45     1     6
  1.3471544692183794E+00 a       667     0    45     1     7
  3.1936476228018096E-01 a       668     0    45     1     8
 -1.8074303691199203E-01 a       669     0    45     1     9
  7.1533715073797899E-01 a       670     0    45     1    10
  6.9230839455520077E-01 a       671     0    45     1    11
 -2.1447909803026899E-01 a       672     0    45     1    12
  7.0947271924196573E-02 a       673     0    45     1    13
 -3.0632473484581713E-01 a       674     0    45     1    14
 -4.9487784070906682E-01 a       675     0    45     1    15
  3.0646098683796696E-01 a       676     0    46     1     1
  1.1713803460486554E+00 a       677     0    46     1     2
 -4.7128968671679961E-01 a       678     0    46     1     3
 -4.1004997168013056E-02 a       679     0    46     1     4
  1.0804283264569867E+00 a       680     0    46     1     5
 -6.8297002611213820E-01 a       681     0    46     1     6
 -1.1502449492915656E+00 a       682     0    46     1     7
 -1.6536189501787986E+00 a       683     0    46     1     8
  2.1092270074624735E+00 a       684     0    46     1     9
  7.1475351854060765E-01 a       685     0    46     1    10
 -5.7305260344561570E-01 a       686     0    46     1    11
  3.7198612502101719E-01 a       687     0    46     1    12
 -2.0395162473456396E-01 a       688     0    46     1    13
  1.3770168274854711E+00 a       689     0    46     1    14
 -1.6883819805740041E-01 a       690     0    46     1    15
 -5.5744226817653952E-01 a       691     0    47     1     1
 -1.0151530346078752E+00 a       692     0    47     1     2
  2.9545882757504666E-01 a       693     0    47     1     3
 -3.7621507380882868E-01 a       694     0    47     1     4
  2.7240388661536247E-01 a       695     0    47     1     5
  5.6695793440058417E-01 a       696     0    47     1     6
  4.1874672459219525E-01 a       697     0    47     1     7
  5.3069367780655607E-01 a       698     0    47     1     8
  3.8406833832220905E-02 a       699     0    47     1     9
  6.0770642039178557E-01 a       700     0    47     1    10
  1.0071983345395574E+00 a       701     0    47     1    11
 -4.2745548077027468E-01 a       702     0    47     1    12
  8.4772024764923271E-01 a       703     0    47     1    13
  3.3503342889783259E-02 a       704     0    47     1    14
 -1.3688417661286265E-01 a       705     0    47     1    15
  5.2578166152140449E-01 a       706     0    48     1     1
  1.0357685819698035E+00 a       707     0    48     1     2
  1.6034698397601257E-01 a       708     0    48     1     3
  1.0078545060404590E-01 a       709     0    48     1     4
  2.4657335404292474E-01 a       710     0    48     1     5
 -3.7092636646393368E-01 a       711     0    48     1     6
 -9.3922843050163785E-01 a       712     0    48     1     7
  3.4269128724002179E-01 a       713     0    48     1     8
  3.9403346409356589E-02 a       714     0    48     1     9
  8.2154252065336331E-01 a       715     0    48     1    10
 -1.3252363359070851E+00 a       716     0    48     1    11
 -2.0784880220500720E-02 a       717     0    48     1    12
  7.7624424336963094E-01 a       718     0    48     1    13
  2.7031819760575882E-02 a       719     0    48     1    14
  3.5724120942912757E-01 a       720     0    48     1    15
  8.0767029871757257E-01 a       721     0    49     1     1
  3.6734115754419983E-01 a       722     0    49     1     2
 -6.2659052119328373E-01 a       723     0    49     1     3
  4.1252019756760422E-01 a       724     0    49     1     4
 -4.1179113433143860E-01 a       725     0    49     1     5
 -1.2344942783331536E+00 a       726     0    49     1     6
  1.3955134823087572E+00 a       727     0    49     1     7
  5.1363801620950211E-01 a       728     0    49     1     8
 -1.2204827231118232E+00 a       729     0    49     1     9
  6.1167132092083276E-01 a       730     0    49     1    10
 -4.7305634895825666E-01 a       731     0    49     1    11
 -4.6757697029298517E-01 a       732     0    49     1    12
  7.1211745702554963E-01 a       733     0    49     1    13
 -8.1232890490195664E-01 a       734     0    49     1    14
  2.4029428853956661E-01 a       735     0    49     1    15
 -5.2044731918443610E-01 a       736     0    50     1     1
 -5.2051713735452432E-01 a       737     0    50     1     2
 -5.3287604454734794E-01 a       738     0    50     1     3
  5.0050253943651890E-01 a       739     0    50     1     4
  3.3069075605698645E-01 a       740     0    50     1     5
 -3.6228973459657760E-01 a       741     0    50     1     6
 -2.0220958362137265E-01 a       742     0    50     1     7
 -4.2775922412844076E-03 a       743     0    50     1     8
 -6.4681903064229884E-02 a       744     0    50     1     9
  1.2509897608817880E-01 a       745     0    50     1    10
  5.4352291779798934E-01 a       746     0    50     1    11
  3.4448416616152633E-01 a       747     0    50     1    12
 -2.9209862164642574E-02 a       748     0    50     1    13
 -1.6952271216761405E-01 a       749     0    50     1    14
  8.6402162681316258E-02 a       750     0    50     1    15
  3.3695321974647857E-01 a       751     0    51     1     1
 -1.3482726226057265E-01 a       752     0    51     1     2
  4.0729574056468154E-02 a       753     0    51     1     3
 -2.9843699480857352E-02 a       754     0    51     1     4
  5.9748378816340819E-01 a       755     0    51     1     5
 -5.5506671264909081E-02 a       756     0    51     1     6
  2.2711573020612363E-01 a       757     0    51     1     7
 -7.3308784001494365E-01 a       758     0    51     1     8
 -3.2135700731806860E-01 a       759     0    51     1     9
  4.3034519509913305E-01 a       760     0    51     1    10
 -7.9163368214851523E-02 a       761     0    51     1    11
 -2.0631880656698667E-01 a       762     0    51     1    12
 -6.4666327650516817E-02 a       763     0    51     1    13
 -2.0322389094015930E-01 a       764     0    51     1    14
 -1.9191328462338245E-01 a       765     0    51     1    15
 -1.1024099644363546E-01 a       766     0    52     1     1
 -3.8014601717840268E-01 a       767     0    52     1     2
 -1.6864035137063452E-01 a       768     0    52     1     3
  9.0696685239581326E-02 a       769     0    52     1     4
  4.4199318561963663E-01 a       770     0    52     1     5
 -8.1919886745767681E-02 a       771     0    52     1     6
  1.6001966167553730E-01 a       772     0    52     1     7
  9.7191662390411127E-01 a       773     0    52     1     8
  2.3754780832961847E-01 a       774     0    52     1     9
 -1.4480252880873032E-01 a       775     0    52     1    10
 -2.5671798889859582E-01 a       776     0    52     1    11
 -8.4664154086974544E-02 a       777     0    52     1    12
 -5.2208811524816789E-01 a       778     0    52     1    13
  3.3161883419013682E-01 a       779     0    52     1    14
 -1.5722702286533813E-01 a       780     0    52     1    15
 -6.3655711895135947E-01 a       781     0    53     1     1
 -3.5535799638600857E-01 a       782     0    53     1     2
  3.6832124472448619E-01 a       783     0    53     1     3
 -5.3124188286726326E-01 a       784     0    53     1     4
 -1.2638180538341709E-01 a       785     0    53     1     5
  5.2722356454038233E-01 a       786     0    53     1     6
 -4.9211592563521983E-01 a       787     0    53     1     7
  1.5358571958568415E-01 a       788     0    53     1     8
 -2.0609982729635942E-01 a       789     0    53     1     9
  7.7580337634657381E-01 a       790     0    53     1    10
  3.6342947657870395E-01 a       791     0    53     1    11
 -5.5148938313035079E-01 a       792     0    53     1    12
 -7.1468623814934928E-01 a       793     0    53     1    13
  1.4457235998896317E-01 a       794     0    53     1    14
 -1.9392234251764157E-01 a       795     0    53     1    15
 -1.9110386394548845E-01 a       796     0    54     1     1
  1.9363372151998368E-01 a       797     0    54     1     2
 -2.7901243421845190E-01 a       798     0    54     1     3
 -9.7411860089611474E-02 a       799     0    54     1     4
  3.2535511211565178E-02 a       800     0    54     1     5
  1.2221978458472987E-01 a       801     0    54     1     6
 -2.3400293978633907E-01 a       802     0    54     1     7
  2.9243265377210137E-01 a       803     0    54     1     8
 -6.0830829358227623E-01 a       804     0    54     1     9
  4.0609779168214050E-01 a       805     0    54     1    10
  1.6369872271318122E+00 a       806     0    54     1    11
  4.3376900688448551E-03 a       807     0    54     1    12
  2.8235966924449857E-01 a       808     0    54     1    13
  2.4547510758317698E-02 a       809     0    54     1    14
 -6.4356458518926907E-02 a       810     0    54     1    15
 -5.4084256711230150E-01 a       811     0    55     1     1
 -4.1171066235167414E-01 a       812     0    55     1     2
 -3.8273537328395296E-01 a       813     0    55     1     3
  1.0782739299011325E-01 a       814     0    55     1     4
  4.7956642950614092E-01 a       815     0    55     1     5
  2.0958787392386360E-01 a       816     0    55     1     6
  1.8841757480781596E-01 a       817     0    55     1     7
 -1.1787339114813136E+00 a       818     0    55     1     8
  2.4882692205945572E-01 a       819     0    55     1     9
  1.0449152857205846E+00 a       820     0    55     1    10
  1.9792275054298775E-01 a       821     0    55     1    11
  1.8192926576796983E-01 a       822     0    55     1    12
 -5.0448607628153008E-01 a       823     0    55     1    13
  6.5714725553557429E-01 a       824     0    55     1    14
  1.5851662676635689E-01 a       825     0    55     1    15
 -1.3528216906807730E-01 a       826     0    56     1     1
 -3.4524264265830079E-01 a       827     0    56     1     2
 -4.4768561075624302E-01 a       828     0    56     1     3
  2.3135555318287557E-01 a       829     0    56     1     4
  1.6055443191344276E-01 a       830     0    56     1     5
  1.5455101303134292E-01 a       831     0    56     1     6
 -5.0077603998766951E-01 a       832     0    56     1     7
  7.0590576309458186E-01 a       833     0    56     1     8
  9.2328252645489689E-02 a       834     0    56     1     9
 -3.8544234673375083E-01 a       835     0    56     1    10
 -2.2883937416957120E-01 a       836     0    56     1    11
  1.9587428426041920E-01 a       837     0    56     1    12
  3.7059303549263367E-01 a       838     0    56     1    13
  6.4313615068155625E-02 a       839     0    56     1    14
  7.5259059168336673E-01 a       840     0    56     1    15
 -3.9988023433829470E-02 a       841     0    57     1     1
 -2.9227741839697985E-01 a       842     0    57     1     2
  1.0010741838243581E-01 a       843     0    57     1     3
  4.9402728619837105E-02 a       844     0    57     1     4
  2.2131314534795060E-01 a       845     0    57     1     5
 -1.4119340122586554E-01 a       846     0    57     1     6
 -2.0951327408353587E-01 a       847     0    57     1     7
 -6.1239472469428180E-01 a       848     0    57     1     8
  2.5896987287963619E-01 a       849     0    57     1     9
  5.7814090984466292E-02 a       850     0    57     1    10
 -8.1682317875820987E-01 a       851     0    57     1    11
 -8.2183676771099806E-02 a       852     0    57     1    12
 -1.7906844661793311E-01 a       853     0    57     1    13
  9.6028790028258634E-02 a       854     0    57     1    14
  2.2036454618168214E-01 a       855     0    57     1    15
  1.2638998103002119E-01 a       856     0    58     1     1
 -1.1481452915256829E+00 a       857     0    58     1     2
  9.1582805206807089E-02 a       858     0    58     1     3
 -3.3759398638409105E-01 a       859     0    58     1     4
 -3.0301385928336227E-01 a       860     0    58     1     5
 -4.6015756263562424E-01 a       861     0    58     1     6
  9.5723003030659204E-01 a       862     0    58     1     7
  8.9822372646418491E-01 a       863     0    58     1     8
 -3.6888979003039990E-01 a       864     0    58     1     9
 -7.8161838922505089E-01 a       865     0    58     1    10
 -6.5572339064618179E-01 a       866     0    58     1    11
  1.6625558627421269E-03 a       867     0    58     1    12
  9.3393164261942430E-01 a       868     0    58     1    13
  2.0183270841177534E-02 a       869     0    58     1    14
  3.2427031061923517E-01 a       870     0    58     1    15
  7.8013663088731755E-01 a       871     0    59     1     1
  3.8144122424905924E-01 a       872     0    59     1     2
 -3.0481609422437039E-01 a       873     0    59     1     3
  3.9642660805011853E-01 a       874     0    59     1     4
 -1.6560285407443501E-01 a       875     0    59     1     5
 -2.3673494047456803E-01 a       876     0    59     1     6
 -2.6762147003167558E-01 a       877     0    59     1     7
 -5.2208231812346351E-01 a       878     0    59     1     8
  1.8627063552075895E-02 a       879     0    59     1     9
 -6.9753906388111997E-01 a       880     0    59     1    10
 -7.5306552355782064E-01 a       881     0    59     1    11
  1.7132309448442892E-01 a       882     0    59     1    12
 -9.0710512511812047E-01 a       883     0    59     1    13
 -5.1599558436969178E-03 a       884     0    59     1    14
  3.4941848194726351E-02 a       885     0    59     1    15
 -1.7391562649781564E-01 a       886     0    60     1     1
 -4.6417785647035592E-01 a       887     0    60     1     2
 -7.4659050953696057E-02 a       888     0    60     1     3
 -3.2398285755607199E-03 a       889     0    60     1     4
 -4.9348141890611548E-02 a       890     0    60     1     5
  1.5250185039817992E-02 a       891     0    60     1     6
  3.6888059850948868E-01 a       892     0    60     1     7
 -3.5670747296498095E-01 a       893     0    60     1     8
 -2.0656616211978715E-01 a       894     0    60     1     9
 -3.3684338586561863E-01 a       895     0    60     1    10
  2.1530729432830575E-01 a       896     0    60     1    11
  3.3524962156831498E-02 a       897     0    60     1    12
 -2.2439622569863418E-01 a       898     0    60     1    13
 -4.0669138211400759E-02 a       899     0    60     1    14
 -8.1012387502045272E-02 a       900     0    60     1    15
 -2.0045683139965173E-01 a       901     0    61     1     1
 -5.2700405504564778E-02 a       902     0    61     1     2
  3.2851067754604468E-01 a       903     0    61     1     3
 -1.6354548525126217E-01 a       904     0    61     1     4
  1.6749837952163271E-01 a       905     0    61     1     5
  3.4842519444509024E-01 a       906     0    61     1     6
 -7.4421485150259459E-01 a       907     0    61     1     7
 -4.8544795607384816E-01 a       908     0    61     1     8
  2.8637324321148250E-01 a       909     0    61     1     9
 -3.8172249536849862E-01 a       910     0    61     1    10
  8.7439716043762672E-01 a       911     0    61     1    11
  1.1065332556526396E-01 a       912     0    61     1    12
 -2.2007126966282586E-01 a       913     0    61     1    13
  3.3821827767371671E-01 a       914     0    61     1    14
 -4.9581088988752305E-02 a       915     0    61     1    15
 -8.4695865442904777E-02 a       916     0    62     1     1
  1.8409059225393554E-01 a       917     0    62     1     2
  2.2687859256909548E-01 a       918     0    62     1     3
 -2.8477812104007372E-01 a       919     0    62     1     4
 -1.9079004875923819E-01 a       920     0    62     1     5
  2.0253048884712396E-01 a       921     0    62     1     6
  1.3665155316311248E-01 a       922     0    62     1     7
  6.1010197972798184E-02 a       923     0    62     1     8
 -7.0424132998726852E-02 a       924     0    62     1     9
  4.7717767820789243E-02 a       925     0    62     1    10
 -3.1124668732917506E-02 a       926     0    62     1    11
 -7.6313194569250203E-02 a       927     0    62     1    12
  8.2912815355298070E-02 a       928     0    62     1    13
  2.6155399257243750E-02 a       929     0    62     1    14
 -2.2674295925472757E-01 a       930     0    62     1    15
 -4.0983974298968530E-02 a       931     0    63     1     1
  2.1814346029607906E-01 a       932     0    63     1     2
 -1.4689032944918030E-02 a       933     0    63     1     3
 -1.1740009941070710E-01 a       934     0    63     1     4
 -1.9671497178042271E-01 a       935     0    63     1     5
  1.3145122348556376E-01 a       936     0    63     1     6
 -1.3052216099289654E-01 a       937     0    63     1     7
  2.7893629297687977E-01 a       938     0    63     1     8
 -7.1629920924606683E-02 a       939     0    63     1     9
 -3.8178732981849783E-01 a       940     0    63     1    10
  1.2630478348672078E-02 a       941     0    63     1    11
  1.6208665694458713E-01 a       942     0    63     1    12
  1.3625305350967348E-01 a       943     0    63     1    13
  9.1312322888951941E-02 a       944     0    63     1    14
  3.3774586632142806E-02 a       945     0    63     1    15
 -4.3141461321063079E-01 a       946     0    64     1     1
  1.4863356326238941E-01 a       947     0    64     1     2
 -4.4209348583048889E-02 a       948     0    64     1     3
  6.5705365218203277E-02 a       949     0    64     1     4
 -1.3022568989182720E-01 a       950     0    64     1     5
  8.1104900640074570E-02 a       951     0    64     1     6
 -4.9757998624359728E-01 a       952     0    64     1     7
 -2.4127510714071895E-01 a       953     0    64     1     8
 -4.0672276857420381E-01 a       954     0    64     1     9
  2.5890160121137551E-01 a       955     0    64     1    10
  4.0221973869316369E-01 a       956     0    64     1    11
 -1.2722255180826444E-01 a       957     0    64     1    12
 -3.2247414314978823E-02 a       958     0    64     1    13
 -1.1295468285281712E-01 a       959     0    64     1    14
 -5.7325091910355730E-03 a       960     0    64     1    15
  2.9371783330442667E+00 b       961     1     1
  7.6576826119921537E-01 b       962     1     2
 -1.6683261633440061E-01 b       963     1     3
  1.9214499551427903E-02 b       964     1     4
  6.5614560139062250E-01 b       965     1     5
  9.4227776307247568E-01 b       966     1     6
  8.3303002839533336E-01 b       967     1     7
 -1.2046285843748088E-01 b       968     1     8
 -1.5069510350795587E+00 b       969     1     9
  7.2461329202686875E-01 b       970     1    10
  1.1788346385473139E+00 b       971     1    11
  9.2004008395347980E-01 b       972     1    12
 -1.3933368532463288E+00 b       973     1    13
  1.9395975069646103E+00 b       974     1    14
 -9.1530828925412289E-01 b       975     1    15
 -3.3213214212466668E-01 a       976     1     1     2     1
 -2.8153179542070317E-01 a       977     1     1     2     2
 -2.3912225159748851E-01 a       978     1     1     2     3
  6.3948662513553656E-01 a       979     1     1     2     4
  1.7207995110244021E+00 a       980     1     1     2     5
  8.5034170245285823E-01 a       981     1     1     2     6
 -2.7492132993310620E-01 a       982     1     1     2     7
 -3.5444368627950806E-02 a       983     1     1     2     8
  2.6453430615882639E-01 a       984     1     1     2     9
 -1.7081287973779165E+00 a       985     1     1     2    10
  7.0194934569301948E-01 a       986     1     1     2    11
  4.7601455042121826E-01 a       987     1     1     2    12
 -1.1571765549475446E+00 a       988     1     1     2    13
 -4.2325936660863045E-01 a       989     1     1     2    14
  5.2235503604346878E-01 a       990     1     1     2    15
 -1.5374204110721597E+00 a       991     1     2     2     1
  2.2747943663808201E-01 a       992     1     2     2     2
  1.9556430554404118E+00 a       993     1     2     2     3
 -3.1310864461153892E-01 a       994     1     2     2     4
  2.1128656493546905E-01 a       995     1     2     2     5
 -5.6461593422534739E-01 a       996     1     2     2     6
  2.0347802094564105E+00 a       997     1     2     2     7
 -1.0358274725404286E+00 a       998     1     2     2     8
 -6.4619970566658180E-01 a       999     1     2     2     9
 -8.2384531081287915E-01 a      1000     1     2     2    10
 -1.7372733553838127E-01 a      1001     1     2     2    11
  2.1378502399565322E-02 a      1002     1     2     2    12
  6.4617927071993778E-02 a      1003     1     2     2    13
 -1.2154799723206018E-01 a      1004     1     2     2    14
  8.7408222164460384E-02 a      1005     1     2     2    15
  1.4063634318656322E+00 a      1006     1     3     2     1
  1.8347250790240058E-01 a      1007     1     3     2     2
  6.0245468638080724E-01 a      1008     1     3     2     3
 -6.8884921240228802E-01 a      1009     1     3     2     4
 -1.4914972743430090E+00 a      1010     1     3     2     5
 -5.9653882455156759E-01 a      1011     1     3     2     6
 -1.5019542290614799E-01 a      1012     1     3     2     7
  8.0786827239668857E-01 a      1013     1     3     2     8
  1.2283117529023997E+00 a      1014     1     3     2     9
  1.4807175047630445E+00 a      1015     1     3     2    10
  2.9187400663594537E-01 a      1016     1     3     2    11
  1.2086401606010482E+00 a      1017     1     3     2    12
  6.9587035071009506E-01 a      1018     1     3     2    13
 -7.8916414557621239E-01 a      1019     1     3     2    14
 -8.1555467667962822E-01 a      1020     1     3     2    15
 -6.8664160991645240E-01 a      1021     1     4     2     1
 -5.2802894366146957E-01 a      1022     1     4     2     2
  2.1255197160282120E+00 a      1023     1     4     2     3
  7.3539067622150928E-02 a      1024     1     4     2     4
  2.6421733585377498E+00 a      1025     1     4     2     5
  2.0538982518811055E-01 a      1026     1     4     2     6
  2.1454401067956446E+00 a      1027     1     4     2     7
  1.5466913809952649E+00 a      1028     1     4     2     8
  6.7969547344465298E-01 a      1029     1     4     2     9
 -1.5222908204194303E+00 a      1030     1     4     2    10
  2.4612703384689780E-01 a      1031     1     4     2    11
  2.0758427559392517E-01 a      1032     1     4     2    12
 -5.5973242362732367E-01 a      1033     1     4     2    13
  1.5388720637854350E+00 a      1034     1     4     2    14
 -4.8211876063163306E-01 a      1035     1     4     2    15
  5.7916098205389233E-01 a      1036     1     5     2     1
 -1.8782324151973587E-01 a      1037     1     5     2     2
  1.1547186999798664E+00 a      1038     1     5     2     3
 -4.4322270558961610E-02 a      1039     1     5     2     4
  1.0358366356394804E+00 a      1040     1     5     2     5
  1.1286489265095583E+00 a      1041     1     5     2     6
  7.5069172692186914E-01 a      1042     1     5     2     7
  7.2275802823568117E-02 a      1043     1     5     2     8
 -9.9610465526658837E-02 a      1044     1     5     2     9
 -3.0416805941111584E+00 a      1045     1     5     2    10
 -5.0186099205382736E-02 a      1046     1     5     2    11
 -1.0631358807966400E+00 a      1047     1     5     2    12
  5.8877658475829064E-01 a      1048     1     5     2    13
  1.9056416710309193E-01 a      1049     1     5     2    14
 -1.3479430105022761E+00 a      1050     1     5     2    15
 -3.0595143618662679E-01 a      1051     1     6     2     1
  1.3987168194020891E-01 a      1052     1     6     2     2
  1.3735967617781022E-01 a      1053     1     6     2     3
 -4.9230783609395623E-01 a      1054     1     6     2     4
  1.0710658686019756E+00 a      1055     1     6     2     5
 -3.4004454663224398E-01 a      1056     1     6     2     6
 -7.5330614709325797E-02 a      1057     1     6     2     7
 -2.7879843649071384E-01 a      1058     1     6     2     8
 -3.2574536206105381E-01 a      1059     1     6     2     9
  1.2940101204579926E+00 a      1060     1     6     2    10
 -3.3953690750121129E-01 a      1061     1     6     2    11
 -5.2806999874426511E-02 a      1062     1     6     2    12
 -4.7511433049891272E-01 a      1063     1     6     2    13
  9.2715491653382087E-01 a      1064     1     6     2    14
 -5.8796668690005993E-01 a      1065     1     6     2    15
  1.1217251760564194E-01 a      1066     1     7     2     1
 -4.5032969183138100E-01 a      1067     1     7     2     2
  3.6053811670710195E-01 a      1068     1     7     2     3
  3.4951652019338968E-02 a      1069     1     7     2     4
 -8.7203315507657572E-02 a      1070     1     7     2     5
 -2.8966016788014937E-01 a      1071     1     7     2     6
  7.4446878071516209E-01 a      1072     1     7     2     7
 -5.4737827185027876E-01 a      1073     1     7     2     8
 -2.4541628611797919E-01 a      1074     1     7     2     9
 -9.3607144121351948E-01 a      1075     1     7     2    10
 -6.3243128461836384E-01 a      1076     1     7     2    11
 -5.9262332801955675E-01 a      1077     1     7     2    12
  1.5184003044277700E-01 a      1078     1     7     2    13
  1.2272399189167789E+00 a      1079     1     7     2    14
 -1.9343955765449727E-01 a      1080     1     7     2    15
  6.2973037383726371E-01 a      1081     1     8     2     1
  7.7974037722537429E-02 a      1082     1     8     2     2
 -4.3721266769205841E-01 a      1083     1     8     2     3
 -2.6874441806277256E-02 a      1084     1     8     2     4
  7.5923101752584254E-01 a      1085     1     8     2     5
  1.3725772059616403E-01 a      1086     1     8     2     6
 -7.6289105687326580E-02 a      1087     1     8     2     7
 -7.4199681428537567E-01 a      1088     1     8     2     8
 -1.0060224944989999E+00 a      1089     1     8     2     9
  1.3265498333306455E-01 a      1090     1     8     2    10
  4.3133796763048804E-01 a      1091     1     8     2    11
  8.5792219679895376E-01 a      1092     1     8     2    12
  1.0954980569237376E-01 a      1093     1     8     2    13
  1.6916409377324024E+00 a      1094     1     8     2    14
  2.9924607577912425E-02 a      1095     1     8     2    15
  1.8305749688560329E+00 a      1096     1     9     2     1
  1.7160027534424441E-01 a      1097     1     9     2     2
 -1.7737026847523170E+00 a      1098     1     9     2     3
 -9.3528120002299397E-01 a      1099     1     9     2     4
 -1.6672514583729603E+00 a      1100     1     9     2     5
 -1.1158773505044661E+00 a      1101     1     9     2     6
 -9.8883653862748289E-01 a      1102     1     9     2     7
 -1.7205776350452207E+00 a      1103     1     9     2     8
 -2.0360019728844789E+00 a      1104     1     9     2     9
  4.8363465041633788E-02 a      1105     1     9     2    10
  1.1505813547018335E+00 a      1106     1     9     2    11
 -1.1892001313622704E+00 a      1107     1     9     2    12
 -1.7158703969996922E+00 a      1108     1     9     2    13
  7.4752461376666868E-01 a      1109     1     9     2    14
 -7.5051965332990134E-01 a      1110     1     9     2    15
 -1.6531247982609782E+00 a      1111     1    10     2     1
  8.7955733768676964E-02 a      1112     1    10     2     2
 -1.1573258735865577E-01 a      1113     1    10     2     3
  3.2530912545987539E-01 a      1114     1    10     2     4
  2.0476686216820394E+00 a      1115     1    10     2     5
 -1.4504890494728404E-01 a      1116     1    10     2     6
  5.0573378668490543E-01 a      1117     1    10     2     7
 -6.3600134720668056E-01 a      1118     1    10     2     8
 -2.3900616673322611E-01 a      1119     1    10     2     9
 -8.6727007427076019E-01 a      1120     1    10     2    10
 -1.5559232175549971E-02 a      1121     1    10     2    11
  3.6897264876491104E-01 a      1122     1    10     2    12
  1.4772314650547494E-01 a      1123     1    10     2    13
  5.4437185005182553E-01 a      1124     1    10     2    14
  1.0637945000711233E+00 a      1125     1    10     2    15
 -2.0378054825324127E-01 a      1126     1    11     2     1
  9.1616441276931926E-01 a      1127     1    11     2     2
  7.4941491339361588E-01 a      1128     1    11     2     3
 -3.4432138831062020E-01 a      1129     1    11     2     4
 -8.6124537055489281E-01 a      1130     1    11     2     5
  4.4973677277171981E-01 a      1131     1    11     2     6
  6.9629583784805948E-01 a      1132     1    11     2     7
  1.1959174431519572E-01 a      1133     1    11     2     8
 -3.9988564646259016E-02 a      1134     1    11     2     9
 -5.0990127246993266E-01 a      1135     1    11     2    10
 -6.9565817457742748E-02 a      1136     1    11     2    11
 -3.6217059715249494E-01 a      1137     1    11     2    12
  9.9604991790704900E-01 a      1138     1    11     2    13
  1.4118359579584169E-01 a      1139     1    11     2    14
 -2.6458376547283713E-01 a      1140     1    11     2    15
 -8.3378723131220145E-01 a      1141     1    12     2     1
 -5.6688060243787253E-01 a      1142     1    12     2     2
  1.7724277130950372E+00 a      1143     1    12     2     3
  5.6423018556597482E-01 a      1144     1    12     2     4
  1.8448673041370023E+00 a      1145     1    12     2     5
  4.4065040662985744E-01 a      1146     1    12     2     6
  1.9622821457036745E+00 a      1147     1    12     2     7
  5.3927083107589719E-03 a      1148     1    12     2     8
  1.0065117669514909E+00 a      1149     1    12     2     9
 -1.6974514646398808E+00 a      1150     1    12     2    10
 -2.8030982383333530E-01 a      1151     1    12     2    11
  5.8573034469968555E-01 a      1152     1    12     2    12
  4.9278392780095498E-01 a      1153     1    12     2    13
  1.2130564290759935E+00 a      1154     1    12     2    14
  1.7717510739595016E-01 a      1155     1    12     2    15
 -1.5345545760993349E+00 a      1156     1    13     2     1
 -5.0677821073729545E-01 a      1157     1    13     2     2
 -4.1179186717227512E-01 a      1158     1    13     2     3
  5.6074360190452777E-01 a      1159     1    13     2     4
 -2.8384405786824289E+00 a      1160     1    13     2     5
 -8.2521939590669502E-02 a      1161     1    13     2     6
  6.2226920983602008E-01 a      1162     1    13     2     7
  1.4466519801041505E-01 a      1163     1    13     2     8
 -1.8739493218166334E-01 a      1164     1    13     2     9
  1.9042391192775887E+00 a      1165     1    13     2    10
  3.6814416436833469E-01 a      1166     1    13     2    11
  1.3797618869167938E+00 a      1167     1    13     2    12
 -3.9328023674755630E-02 a      1168     1    13     2    13
  6.5660008495032318E-01 a      1169     1    13     2    14
  1.0767421145565881E+00 a      1170     1    13     2    15
 -4.3140775531433189E+00 a      1171     1    14     2     1
 -3.0396955924148578E-01 a      1172     1    14     2     2
  5.6078870290353144E-01 a      1173     1    14     2     3
  4.1274547479788742E-01 a      1174     1    14     2     4
  5.6464751169476213E-01 a      1175     1    14     2     5
 -3.9226815429540868E-01 a      1176     1    14     2     6
 -2.3488113327041352E-01 a      1177     1    14     2     7
 -4.3051190123480115E-01 a      1178     1    14     2     8
 -1.2677287206147307E+00 a      1179     1    14     2     9
  7.3811181062293463E-01 a      1180     1    14     2    10
 -9.9628774583388768E-01 a      1181     1    14     2    11
  6.9971693974986759E-01 a      1182     1    14     2    12
  9.3625062655573577E-01 a      1183     1    14     2    13
  6.6452224917107533E-02 a      1184     1    14     2    14
  1.9497352201590239E+00 a      1185     1    14     2    15
 -2.9792835825162622E-01 a      1186     1    15     2     1
 -5.3520799759317994E-01 a      1187     1    15     2     2
 -6.7539363277518893E-01 a      1188     1    15     2     3
 -3.1752808486529444E-01 a      1189     1    15     2     4
 -1.5286598034247636E+00 a      1190     1    15     2     5
 -1.1590880991021503E-01 a      1191     1    15     2     6
 -7.6832017264453834E-01 a      1192     1    15     2     7
  4.1923391769518747E-01 a      1193     1    15     2     8
 -2.3432573434762873E-02 a      1194     1    15     2     9
  1.1889584544789955E+00 a      1195     1    15     2    10
 -2.0268675351454282E+00 a      1196     1    15     2    11
  1.4001654947068545E+00 a      1197     1    15     2    12
  2.8273248596837069E-01 a      1198     1    15     2    13
 -1.0892037848667671E+00 a      1199     1    15     2    14
 -4.3046757402893771E-01 a      1200     1    15     2    15
  6.8780630747659521E-01 b      1201     2     1
  7.7509755823096960E-01 b      1202     2     2
 -5.8842254892300694E-01 b      1203     2     3
 -5.0725493297980884E-01 b      1204     2     4
 -4.1132012952927073E-02 b      1205     2     5
 -7.3909381781476857E-01 b      1206     2     6
 -1.8004244059917134E+00 b      1207     2     7
  9.1751964782347606E-01 b      1208     2     8
 -3.9731426250778551E-01 b      1209     2     9
 -2.2153892649593550E+00 b      1210     2    10
  2.8455131595769301E-01 b      1211     2    11
 -1.2742263554134037E+00 b      1212     2    12
 -9.8453518541260310E-01 b      1213     2    13
 -9.0668017009771951E-01 b      1214     2    14
 -8.7183079470779412E-01 b      1215     2    15
  1.7421314574925131E+00 a      1216     2     1     3     1
  5.0635527443027850E-01 a      1217     2     2     3     1
 -9.0201632009108479E-01 a      1218     2     3     3     1
  9.4488273737347417E-01 a      1219     2     4     3     1
  4.6031334127808671E-01 a      1220     2     5     3     1
 -3.4270648795391773E-01 a      1221     2     6     3     1
  3.8882736363427051E-01 a      1222     2     7     3     1
  9.1984349753706493E-02 a      1223     2     8     3     1
 -2.5113912230075675E-01 a      1224     2     9     3     1
  2.3729538652126791E+00 a      1225     2    10     3     1
 -1.6390956958753097E-01 a      1226     2    11     3     1
  8.6006591263421153E-02 a      1227     2    12     3     1
 -8.4146650888349744E-02 a      1228     2    13     3     1
 -1.5126123947673017E-01 a      1229     2    14     3     1
 -3.6533789874784783E-01 a      1230     2    15     3     1
 -2.1994981741378405E-01 b      1231     3     1
